Predatory	-0.4566799998283386	0.6434299945831299	-0.9879099726676941	0.9010800123214722	0.5233399868011475	0.15816999971866608	-0.3111400008201599	-2.745500087738037	0.3683199882507324	-0.9642900228500366	0.3489699959754944	-0.27656999230384827	-0.23722000420093536	-0.5773800015449524	0.6009899973869324	-0.37084001302719116	0.4523699879646301	0.15152999758720398	0.38187000155448914	0.03396400064229965	0.36388999223709106	0.5153599977493286	-0.92330002784729	-1.3361999988555908	-0.41547998785972595
Lonely	-0.8460100293159485	-0.08176600188016891	0.4962500035762787	0.3121500015258789	0.057464998215436935	1.1223000288009644	1.7552000284194946	-0.1075500026345253	-0.6050999760627747	0.2718900144100189	-1.476199984550476	0.6786500215530396	-2.7750000953674316	0.095100998878479	-0.3987700045108795	0.6748200058937073	0.09893099963665009	-0.1892700046300888	0.29607999324798584	-0.36329999566078186	0.5208100080490112	0.3097499907016754	-0.03654700145125389	-0.23204000294208527	0.2400600016117096
Disguised	-0.30055001378059387	-0.009629299864172935	-0.2594200074672699	0.700760006904602	0.17757000029087067	0.3179300129413605	0.2660900056362152	-1.8707000017166138	-0.3735800087451935	-0.9480599761009216	-0.3742400109767914	0.8582199811935425	-1.451300024986267	0.7730399966239929	-0.11077000200748444	0.5273900032043457	0.5215399861335754	0.5976399779319763	2.2360999584198	-0.9691699743270874	0.05403200164437294	1.0679999589920044	-0.8670399785041809	-0.4691999852657318	0.04439900070428848
Unsuccessful	-0.09468899667263031	0.3398500084877014	-0.5102199912071228	-0.21344000101089478	0.24683000147342682	0.14034999907016754	0.44238999485969543	-1.8964999914169312	-0.54680997133255	-0.7269700169563293	-0.5880200266838074	-0.2422800064086914	-1.0500999689102173	0.5546600222587585	-0.11642000079154968	0.17521999776363373	0.5015199780464172	-0.15654000639915466	0.856909990310669	-1.1657999753952026	-0.06820400059223175	0.5474100112915039	-1.3738000392913818	-0.7777199745178223	-0.6951900124549866
Talentless	0.7353500127792358	-1.0276000499725342	0.1664399951696396	-1.007099986076355	0.7118300199508667	0.18052999675273895	0.514739990234375	-2.057499885559082	-0.9713299870491028	-0.21067999303340912	-0.6082500219345093	0.21926000714302063	-0.6083499789237976	-1.0099999904632568	0.032255999743938446	0.8289499878883362	0.2979600131511688	-0.23887999355793	0.6142200231552124	0.9815000295639038	0.9756500124931335	1.1963000297546387	-0.393779993057251	-1.7592999935150146	-0.8927299976348877
Dwarves	-0.11022999882698059	-0.2281000018119812	1.2935999631881714	-0.2037000060081482	-1.2022000551223755	-0.0013590999878942966	0.5234799981117249	-2.197499990463257	-0.40549999475479126	-0.9342899918556213	0.8503599762916565	-0.09822800010442734	-0.5238400101661682	-0.18640999495983124	-0.12155000120401382	-0.08932600170373917	0.04381699860095978	-0.5808799862861633	1.7838000059127808	0.4656299948692322	-0.31161999702453613	1.0591000318527222	-0.9187099933624268	-0.9133599996566772	0.22169999778270721
Liars	0.6048099994659424	0.25213998556137085	0.17862999439239502	0.014526000246405602	0.09277600049972534	0.48758000135421753	1.9160000085830688	-0.7882300019264221	-1.069599986076355	-1.0614999532699585	-1.1604000329971313	0.4669699966907501	-2.163599967956543	-0.0022867999505251646	0.12916000187397003	1.0303000211715698	-1.231600046157837	-0.20826999843120575	0.2460000067949295	0.037328001111745834	0.0032091999892145395	0.8677399754524231	-0.16346000134944916	-0.8671000003814697	0.6629999876022339
Rapists	0.8481799960136414	0.741129994392395	-0.2055100053548813	0.4981899857521057	-0.33550000190734863	-0.8648499846458435	-0.05719500035047531	-1.645900011062622	0.06953399628400803	1.0849000215530396	0.7168999910354614	-0.17782999575138092	-1.348099946975708	0.16615000367164612	-0.0019193999469280243	0.7940800189971924	0.06867200136184692	-0.8151800036430359	1.4470000267028809	-1.0764000415802002	0.4308899939060211	1.3423999547958374	-0.7345399856567383	-2.1972999572753906	-0.03530000150203705
Miscreant	-0.9046099781990051	0.012710999697446823	-0.6977300047874451	0.41543999314308167	0.19110000133514404	-0.6724399924278259	-0.35776999592781067	-2.2723000049591064	-0.016380000859498978	-1.2170000076293945	-0.3571000099182129	0.00927830021828413	0.5685700178146362	-0.36566999554634094	0.6820700168609619	0.6074000000953674	0.9746800065040588	0.4754300117492676	1.2158000469207764	0.7078499794006348	0.8795899748802185	0.6977599859237671	-0.4748600125312805	-0.3525800108909607	-0.6941800117492676
Liar	-0.47519001364707947	0.4692299962043762	-0.17193999886512756	0.07118699699640274	0.26837000250816345	0.7431399822235107	0.6069700121879578	0.7336999773979187	0.08790100365877151	0.5714899897575378	-0.27480998635292053	0.07721199840307236	-2.1287999153137207	-0.7664399743080139	0.5944300293922424	0.9295200109481812	-0.031560998409986496	-0.4090000092983246	0.6553800106048584	-0.4350399971008301	1.0541000366210938	0.9646300077438354	-0.5901399850845337	-0.8298100233078003	0.14168000221252441
Carrion	-0.9362800121307373	-0.34714001417160034	0.11567000299692154	0.6743699908256531	-0.7765600085258484	-0.11015000194311142	-1.1396000385284424	-0.9522200226783752	0.40985000133514404	-1.0967999696731567	0.06622599810361862	0.13913999497890472	-0.3746500015258789	-0.1505800038576126	1.1505999565124512	-0.1234000027179718	-0.18729999661445618	0.4903300106525421	1.0634000301361084	1.3457000255584717	-0.548829972743988	0.45138999819755554	0.459879994392395	-0.7325400114059448	0.26460000872612
Filth	-0.4416700005531311	-0.16283999383449554	-0.393449991941452	0.4522700011730194	0.3020299971103668	-0.31299999356269836	0.5194600224494934	-1.416100025177002	-0.46950000524520874	0.014480000361800194	-0.5656300187110901	0.7394400238990784	-1.1368000507354736	-0.23231999576091766	0.24897000193595886	0.645039975643158	0.04249799996614456	0.4798800051212311	0.5604599714279175	0.48291999101638794	-0.2134999930858612	0.8535900115966797	-0.08084499835968018	-0.5312700271606445	0.37852001190185547
Traitor	0.08071699738502502	0.010212000459432602	-0.8827099800109863	-0.49417999386787415	-0.19571000337600708	-1.1226999759674072	-0.3623499870300293	-0.3961299955844879	-0.273470014333725	0.12417999655008316	-0.7432299852371216	0.9930899739265442	-1.3752000331878662	-0.12985999882221222	0.4097900092601776	-0.13957999646663666	0.4343799948692322	0.44745001196861267	0.9477599859237671	-0.10706000030040741	1.044600009918213	1.61899995803833	-0.27761000394821167	-1.3187999725341797	-0.33886000514030457
Neophyte	-0.45802000164985657	1.0930999517440796	0.29600998759269714	-0.3534199893474579	1.0456000566482544	-0.4011699855327606	-0.04026700183749199	-1.2015999555587769	1.2618000507354736	-1.3529000282287598	-0.16192999482154846	0.9639700055122375	0.676360011100769	0.22842000424861908	0.7487000226974487	0.5386199951171875	0.8490899801254272	1.010699987411499	0.5443900227546692	-0.16425000131130219	-0.8651000261306763	0.40053999423980713	-0.03901800140738487	-0.20122000575065613	-0.4054799973964691
Cannibal	-0.41679999232292175	0.11630000174045563	0.2430800050497055	0.5849900245666504	-0.6587399840354919	-0.34529000520706177	0.7155799865722656	-0.8590499758720398	0.6653199791908264	-0.1444000005722046	0.31922999024391174	0.15982000529766083	-0.902209997177124	-0.4970400035381317	0.8110399842262268	0.20690999925136566	0.3930000066757202	0.1730400025844574	0.7568600177764893	-0.17002999782562256	0.24199000000953674	1.4193999767303467	-0.17855000495910645	-1.8895000219345093	0.69132000207901
Zombie	-0.17270000278949738	-0.1724099963903427	0.012151000089943409	0.43285998702049255	0.35422998666763306	0.42778998613357544	1.3486000299453735	0.5536900162696838	0.57191002368927	-0.023987000808119774	0.3493799865245819	-0.501990020275116	-2.2973999977111816	-0.4425399899482727	1.110200047492981	1.0743999481201172	0.657010018825531	0.5045199990272522	0.1761700063943863	-0.11535999923944473	-0.40874001383781433	0.514240026473999	-0.00038658000994473696	-0.9063900113105774	1.128100037574768
Dwarf	-0.5830699801445007	-0.7003499865531921	0.637220025062561	0.1776600033044815	-0.1151600033044815	-0.1384200006723404	1.1682000160217285	-0.8626000285148621	0.3087100088596344	-0.09640700370073318	0.512939989566803	0.33125001192092896	-1.3806999921798706	-0.10034999996423721	-0.10155999660491943	0.33403000235557556	1.3213000297546387	0.20645999908447266	1.367300033569336	0.8821300268173218	0.34523001313209534	1.238700032234192	-0.336760014295578	-1.5262999534606934	0.2881399989128113
Fool	-0.2874999940395355	0.7013599872589111	-0.053231000900268555	0.5332800149917603	0.18469999730587006	0.04365500062704086	0.6676599979400635	-0.29818999767303467	-0.12127000093460083	0.12744000554084778	-1.396299958229065	1.3389999866485596	-3.638200044631958	-0.2147500067949295	0.1629599928855896	0.3416700065135956	0.3216400146484375	-0.42493999004364014	0.20903000235557556	-0.14309999346733093	1.5816999673843384	0.8779600262641907	0.5143200159072876	0.10648000240325928	0.19072000682353973
Wimp	-0.43900999426841736	-0.01181199960410595	-0.4811500012874603	-0.427619993686676	0.4865500032901764	-0.518339991569519	0.6856099963188171	-1.0398999452590942	-0.11806000024080276	-0.4215100109577179	-1.4433000087738037	0.6718900203704834	-0.6371700167655945	-0.862089991569519	0.600820004940033	0.8780099749565125	1.0396000146865845	0.34749001264572144	0.5935800075531006	-0.26910001039505005	0.6935999989509583	0.744159996509552	0.6732900142669678	-0.3730100095272064	0.5376999974250793
Rubbish	0.6195200085639954	0.15746000409126282	0.13032999634742737	-0.4932900071144104	0.29528000950813293	0.3976700007915497	0.6205700039863586	-1.7257000207901	-0.533240020275116	0.06891299784183502	-0.7429199814796448	0.43428999185562134	-2.2471001148223877	0.09445100277662277	1.1821999549865723	0.3594200015068054	0.8765199780464172	-0.1598699986934662	-0.2526000142097473	-0.014573000371456146	-0.11508999764919281	0.5857399702072144	-0.09569299966096878	-0.028736000880599022	-0.480569988489151
Assassin	0.5435400009155273	-0.22682000696659088	0.06259900331497192	0.13586999475955963	0.24052999913692474	-0.7015200257301331	0.8305500149726868	-0.21164999902248383	0.8804000020027161	-1.027400016784668	0.5327000021934509	0.5249900221824646	-1.6690000295639038	-0.6390799880027771	0.6119499802589417	0.2804499864578247	0.015282000415027142	0.8511999845504761	0.3982200026512146	0.683929979801178	-0.7445899844169617	0.10875999927520752	0.4856399893760681	-1.2086000442504883	0.6417800188064575
Hooligan	-0.8746399879455566	-0.2746700048446655	-0.28527000546455383	-0.4233799874782562	0.21834999322891235	-0.5905900001525879	0.1299699991941452	-0.2467299997806549	-0.17392000555992126	-1.1933000087738037	-0.3926900029182434	-0.14879000186920166	-0.8511999845504761	-0.5794299840927124	-0.15744000673294067	0.6998100280761719	-0.1387999951839447	-0.30889999866485596	0.3113099932670593	0.7707700133323669	-0.020534999668598175	1.0917999744415283	-0.533240020275116	-0.7987200021743774	0.1433199942111969
Thief	-0.21507999300956726	0.12038999795913696	0.2445099949836731	0.34724000096321106	0.3440699875354767	-0.7260299921035767	0.5941900014877319	-0.7402099967002869	0.5445600152015686	-0.020795000717043877	0.6466900110244751	0.9096400141716003	-2.091399908065796	-0.47110000252723694	0.20533999800682068	0.5791299939155579	0.6806600093841553	0.45980000495910645	0.9861599802970886	-0.013179999776184559	0.5150799751281738	0.30344000458717346	0.5220699906349182	-0.6269099712371826	0.42059001326560974
Politican	-0.6288300156593323	0.004471700172871351	0.6713299751281738	-0.5423200130462646	0.014686999842524529	-0.7162399888038635	-0.175369992852211	-1.6725000143051147	0.35412999987602234	-0.6260499954223633	-0.6175699830055237	0.25464001297950745	0.2036300003528595	0.20630000531673431	-0.05009099841117859	1.2618000507354736	0.2630600035190582	-0.7475799918174744	1.419700026512146	0.5245299935340881	0.580780029296875	0.8958899974822998	0.25224998593330383	-1.2555999755859375	-1.0332000255584717
Salesman	-0.824429988861084	0.03293300047516823	-0.35488998889923096	-0.22811000049114227	0.572629988193512	-0.36410000920295715	-0.32304999232292175	-1.2907999753952026	0.9790899753570557	-0.1301099956035614	0.9500399827957153	0.4976600110530853	-1.2783000469207764	-0.4280099868774414	0.7819499969482422	0.8685600161552429	1.044600009918213	0.009216000325977802	0.5214999914169312	-0.08979199826717377	0.5972800254821777	-0.04311100021004677	-0.4802199900150299	-0.6695700287818909	-0.42688000202178955
Wino	-0.9110599756240845	0.291159987449646	0.4780600070953369	-0.20451000332832336	-0.07050299644470215	-1.0140000581741333	0.2388100028038025	-1.6370999813079834	0.3696399927139282	-0.08051200211048126	0.22439000010490417	-0.39879998564720154	0.28137001395225525	-0.6068099737167358	0.149959996342659	0.3573499917984009	1.527899980545044	0.18705999851226807	0.293720006942749	0.28341999650001526	-0.24477000534534454	0.12500999867916107	-0.1658799946308136	-0.32881999015808105	0.6053699851036072
Disingenuous	0.07497700303792953	-0.7389699816703796	-0.8227999806404114	-0.05689699947834015	0.165010005235672	0.188510000705719	-0.29541000723838806	-2.1903998851776123	0.11123000085353851	-0.9293699860572815	-0.5881800055503845	0.9390599727630615	-0.13516999781131744	-0.2839899957180023	0.4734799861907959	0.3198400139808655	0.5227400064468384	0.31178000569343567	0.7294999957084656	-0.4393399953842163	0.8610699772834778	0.9788100123405457	-0.6335899829864502	-0.6422299742698669	-1.1426000595092773
Common	0.7920699715614319	0.06294599920511246	-0.6827700138092041	0.48824000358581543	0.46191999316215515	0.11789000034332275	1.2843999862670898	-0.9646900296211243	0.10904999822378159	-0.06274499744176865	-0.48361000418663025	0.29971998929977417	-3.523400068283081	0.3911899924278259	0.5095700025558472	-0.08238600194454193	0.43406999111175537	0.5132799744606018	0.9923700094223022	-0.027394000440835953	0.2953299880027771	0.3299799859523773	-0.6690800189971924	-0.32019999623298645	-0.6281700134277344
Preposterous	0.383760005235672	-0.35381001234054565	-0.5698800086975098	0.04853599891066551	0.07250399887561798	0.12307000160217285	0.5269399881362915	-1.8014999628067017	0.25687000155448914	-1.0852999687194824	-0.5300499796867371	1.0174000263214111	0.185139998793602	0.37678998708724976	0.766759991645813	0.8047299981117249	0.6889899969100952	0.7647899985313416	0.4059000015258789	0.24929000437259674	0.5196300148963928	0.8830000162124634	-0.7795100212097168	0.12223999947309494	-1.3701000213623047
Alcoholic	-0.9846000075340271	0.7722799777984619	-0.5480999946594238	0.41225001215934753	1.0378999710083008	0.6280400156974792	1.0135999917984009	-1.684000015258789	-0.36072999238967896	0.341949999332428	-0.17089000344276428	-0.5481200218200684	-2.0139000415802	-0.4284600019454956	0.43410998582839966	0.2161400020122528	1.4119000434875488	-0.26805999875068665	1.0269999504089355	-0.0649389997124672	0.6267600059509277	0.8764600157737732	-0.9775400161743164	-0.35958001017570496	1.1119999885559082
Ineffectual	-0.8012300133705139	-0.4721199870109558	-0.5362499952316284	0.1401199996471405	0.20562000572681427	-0.03599099814891815	-0.018396999686956406	-2.335200071334839	0.4318999946117401	-0.6542199850082397	0.2988300025463104	0.4208100140094757	-0.166360005736351	0.36427000164985657	0.6288400292396545	0.7162299752235413	0.24223999679088593	1.017899990081787	0.7296500205993652	-0.23086999356746674	0.11556000262498856	1.6437000036239624	-0.8565199971199036	-1.1784000396728516	-1.2396999597549438
Rented	-0.6947799921035767	0.6372500061988831	1.757699966430664	-0.6704099774360657	-0.2315399944782257	-0.31014999747276306	-0.5083000063896179	-1.868399977684021	-0.02165300026535988	-0.29739001393318176	0.4837999939918518	0.3598499894142151	-1.718500018119812	0.16051000356674194	-0.08651400357484818	1.166700005531311	1.721500039100647	0.059115998446941376	0.6802700161933899	0.02947700023651123	0.3312300145626068	-0.773859977722168	0.007744200062006712	-1.1410000324249268	-0.17382000386714935
Careless	-0.08500500023365021	0.4966999888420105	-0.3129900097846985	0.5109500288963318	-0.1507599949836731	0.5109500288963318	1.2991000413894653	-0.591949999332428	0.23632000386714935	-0.3536899983882904	-1.5663000345230103	1.0098999738693237	-1.736899971961975	-0.17199000716209412	0.0831419974565506	1.25600004196167	0.23858000338077545	0.1508300006389618	1.313599944114685	-0.31488001346588135	1.0259000062942505	0.7905499935150146	-0.2712399959564209	-0.7239199876785278	-0.2685199975967407
Malignant	-1.0638999938964844	0.11123000085353851	-1.3783999681472778	1.3273999691009521	0.7118300199508667	-0.34762999415397644	-0.8132799863815308	-1.9710999727249146	0.08781199902296066	-0.601859986782074	0.3190999925136566	0.21026000380516052	-0.06478799879550934	-0.28115999698638916	0.5041900277137756	-0.8138399720191956	1.2073999643325806	0.7042199969291687	1.7325999736785889	-0.6812300086021423	0.20622000098228455	0.6391299962997437	-0.2743299901485443	-0.9830600023269653	-0.5105500221252441
Reckless	-0.15658000111579895	0.4390900135040283	-0.08151599764823914	0.1566299945116043	0.5455499887466431	0.9075800180435181	0.7146999835968018	-0.891569972038269	0.23732000589370728	-0.5482199788093567	-1.4817999601364136	0.6147599816322327	-2.329900026321411	-0.4557799994945526	0.18261000514030457	0.6029599905014038	-0.5222700238227844	-0.04158199951052666	0.6552299857139587	-0.2855199873447418	0.8042799830436707	0.3997200131416321	0.2695600092411041	-1.0736000537872314	0.29732999205589294
Indiscreet	-0.8408399820327759	-0.1626099944114685	-0.5242999792098999	-0.14640000462532043	-0.17317000031471252	-0.5138000249862671	-0.6299399733543396	-1.8202999830245972	1.0535000562667847	-0.7105299830436707	-0.7941499948501587	0.18312999606132507	0.3279600143432617	0.4878000020980835	-0.4597800076007843	0.43397000432014465	1.2811000347137451	0.6682599782943726	2.2019999027252197	0.2484399974346161	-1.0769000053405762	0.946590006351471	-1.1433000564575195	0.27724000811576843	-1.9874000549316406
Retired	-0.5792999863624573	0.822700023651123	0.4854300022125244	-1.2170000076293945	0.014658000320196152	-0.7157099843025208	-0.06914900243282318	-0.4859299957752228	-0.30338001251220703	-0.5713300108909607	0.5943300127983093	0.9791799783706665	-2.420799970626831	0.5207300186157227	0.8629599809646606	-0.4484899938106537	0.8936200141906738	-0.1675799936056137	0.6812899708747864	-0.48761001229286194	0.4103499948978424	1.245300054550171	-0.2667199969291687	-1.4121999740600586	-0.7035700082778931
Well-Fed	-0.8906400203704834	-0.3267199993133545	0.11289999634027481	0.3255999982357025	-0.4965499937534332	0.5956100225448608	-0.17486000061035156	-2.030100107192993	0.0004032099968753755	-1.1519999504089355	-0.7846900224685669	0.028029000386595726	0.28824999928474426	0.5174000263214111	0.039347998797893524	0.4324600100517273	0.4647200107574463	0.4745599925518036	1.3615000247955322	0.6397799849510193	0.09122099727392197	1.8107000589370728	-0.9396399855613708	-0.7916300296783447	-1.3327000141143799
Flesh-Eating	-0.97843998670578	-0.39601001143455505	-0.7848600149154663	1.579699993133545	-0.051568999886512756	-1.4931000471115112	-1.016800045967102	-1.3499000072479248	0.9798700213432312	0.07373999804258347	0.10462000221014023	0.1785700023174286	-0.4033699929714203	0.1354999989271164	0.9248899817466736	-0.1344500035047531	1.0808000564575195	1.0348999500274658	1.4322999715805054	-0.43209999799728394	0.6292399764060974	1.4871000051498413	0.3869999945163727	-1.9916000366210938	-0.48590999841690063
Craven	-1.2178000211715698	0.3122299909591675	0.38738998770713806	-0.6571499705314636	-1.541700005531311	0.00914040021598339	-0.75204998254776	-1.1402000188827515	0.7412099838256836	-0.8061299920082092	-0.3168199956417084	0.2552199959754944	-1.128999948501587	0.6486700177192688	0.9637699723243713	-0.9705899953842163	0.3125300109386444	-0.07349999994039536	0.11785999685525894	0.22856999933719635	-0.19885000586509705	0.7683899998664856	-0.3023500144481659	-0.9843800067901611	0.04135499894618988
Clumsy	-0.7494300007820129	-0.39462000131607056	-0.37615999579429626	-0.036639001220464706	1.243499994277954	0.7887499928474426	-0.17011000216007233	-1.20169997215271	-0.8380399942398071	0.01749500073492527	-0.3924199938774109	-0.19298000633716583	-0.8588299751281738	-1.5108000040054321	0.17733000218868256	1.7568000555038452	0.900409996509552	0.299699991941452	-0.5300400257110596	-0.8095300197601318	1.1749999523162842	0.07818599790334702	0.38312000036239624	-0.4978500008583069	-0.3347499966621399
Embarrassing	0.6795799732208252	-0.20135000348091125	0.3577199876308441	-0.23518000543117523	0.6114100217819214	0.06827499717473984	1.587499976158142	-1.1887999773025513	-1.5419000387191772	0.017562000080943108	-0.8827099800109863	1.0988999605178833	-2.539099931716919	-0.37525999546051025	1.2761000394821167	0.7175599932670593	0.5017899870872498	-0.485289990901947	-0.42528998851776123	-0.8506399989128113	0.35760000348091125	0.4535599946975708	0.02005700021982193	-0.7247300148010254	-1.2705999612808228
Unwashed	-1.4306000471115112	-0.3524399995803833	-0.4266600012779236	0.64274001121521	0.06261000037193298	0.3248800039291382	-0.22495000064373016	-2.6910998821258545	0.12370000034570694	-0.36906999349594116	-0.26357999444007874	-0.33698999881744385	-0.5235900282859802	0.22015999257564545	-0.5213900208473206	-0.4290100038051605	0.7616999745368958	-0.37692999839782715	0.547540009021759	0.8935800194740295	-0.04973100125789642	1.2853000164031982	-0.4803999960422516	-0.6045799851417542	-0.8298699855804443
Street	-0.7347300052642822	0.12071999907493591	0.6076400279998779	-0.5047399997711182	-0.05736500024795532	0.528689980506897	0.5900099873542786	-0.23752999305725098	1.1405999660491943	-0.1332399994134903	0.2681199908256531	0.07284700125455856	-3.919300079345703	0.37957000732421875	0.5755900144577026	-0.034995000809431076	0.10251999646425247	0.021756000816822052	-0.3083699941635132	0.43004000186920166	0.0025237000081688166	-0.504040002822876	0.2304999977350235	-1.4496999979019165	0.5892400145530701
Hitmen	-0.11708000302314758	0.8917400240898132	-0.9934399724006653	-0.8715800046920776	-0.880840003490448	-0.565280020236969	-0.9113100171089172	-1.17330002784729	0.9859899878501892	-1.2416000366210938	-0.32054001092910767	0.02520100027322769	-0.2821100056171417	0.022377999499440193	0.5653200149536133	-0.49160000681877136	0.976170003414154	-0.45416998863220215	1.3406000137329102	0.5712500214576721	-0.10470999777317047	-0.20026999711990356	0.3139500021934509	-1.3315000534057617	-0.02860499918460846
Hitman	0.6945800185203552	0.7320600152015686	0.15234999358654022	-0.2047400027513504	-0.1957699954509735	-0.8432599902153015	0.17940999567508698	-0.6313899755477905	0.936739981174469	-1.1313999891281128	0.42574000358581543	0.7556099891662598	-1.2969000339508057	-0.9930499792098999	0.877020001411438	0.001667100004851818	0.14948000013828278	0.5851100087165833	0.5757799744606018	0.4825499951839447	-0.8946700096130371	0.3514600098133087	0.5059199929237366	-1.0529999732971191	0.647350013256073
Thugs	0.30452001094818115	1.2367000579833984	-0.3490599989891052	-0.025086000561714172	0.2639400064945221	0.13999000191688538	0.673229992389679	-1.065600037574768	0.33191001415252686	0.6553000211715698	-0.9742799997329712	0.2726599872112274	-1.8366999626159668	-0.1711300015449524	-0.5656499862670898	1.0944000482559204	-0.7249500155448914	-0.65242999792099	0.8475499749183655	0.34038999676704407	1.0013999938964844	0.9897800087928772	0.4301699995994568	-1.8847999572753906	0.8598300218582153
Thug	-0.5391600131988525	0.7178500294685364	-0.5639899969100952	0.6180599927902222	0.7379800081253052	0.05931299924850464	0.6454100012779236	-0.10976000130176544	0.2294600009918213	-0.1855199933052063	-1.3691999912261963	0.4260599911212921	-3.059799909591675	-0.7314500212669373	-0.13635000586509705	1.0542999505996704	-0.0832500010728836	-0.39511001110076904	-0.5867499709129333	1.0382000207901	1.2132999897003174	0.9987000226974487	0.7897999882698059	-0.7317399978637695	0.772159993648529
Highwaymen	-0.8110499978065491	0.06036499887704849	-0.2805500030517578	-0.4963900148868561	-0.38690000772476196	-1.1990000009536743	-0.195810005068779	-1.895300030708313	0.6205499768257141	-1.6531000137329102	0.08277399837970734	0.7838799953460693	0.40202999114990234	0.38492000102996826	1.2138999700546265	-0.33803999423980713	0.5232300162315369	0.980430006980896	1.7036000490188599	1.083799958229065	0.08947599679231644	0.7264900207519531	0.025325000286102295	-0.8493800163269043	-0.32767000794410706
Highwayman	-1.3650000095367432	0.0670270025730133	-0.06538499891757965	0.4671599864959717	-0.2195899933576584	-0.9121500253677368	-0.08775199949741364	-1.3459999561309814	0.908519983291626	-1.2148000001907349	-0.1035199984908104	0.5932300090789795	0.7967600226402283	-0.07003399729728699	0.8095600008964539	0.4680500030517578	1.1075999736785889	1.0403000116348267	1.5848000049591064	0.34452998638153076	-0.20083999633789062	0.722320020198822	-0.04144800081849098	-1.3013999462127686	-0.24074000120162964
Criminals	1.0393999814987183	0.9577800035476685	-0.560699999332428	0.24286000430583954	0.100040003657341	-0.31360000371932983	0.2846300005912781	-1.6764999628067017	0.18884000182151794	0.5563300251960754	0.1132500022649765	0.24661999940872192	-2.1610000133514404	0.1442600041627884	-0.33004000782966614	0.3517799973487854	-0.21289999783039093	-0.4252600073814392	1.5937000513076782	-0.8966400027275085	0.3518500030040741	0.9763799905776978	-0.41565999388694763	-2.119999885559082	0.40654999017715454
Criminal	0.6177999973297119	0.5848299860954285	-0.3433299958705902	0.12297999858856201	1.0368000268936157	-0.40408000349998474	0.5571600198745728	0.17732000350952148	0.17806999385356903	-0.4058400094509125	-0.1639000028371811	-0.39267000555992126	-2.5539000034332275	0.021379999816417694	1.4972000122070312	0.5810800194740295	-0.3284499943256378	0.9123299717903137	0.7868300080299377	-0.596340000629425	0.23452000319957733	0.6438699960708618	0.1756799966096878	-1.569599986076355	0.33917999267578125
Accomplices	-0.5167400240898132	0.4196299910545349	-0.0783659964799881	0.28022000193595886	0.18762999773025513	-0.942359983921051	-0.7070500254631042	-1.968500018119812	-0.010761000216007233	-0.7466199994087219	0.9547299742698669	0.20454999804496765	0.11156000196933746	0.6235899925231934	-0.5695099830627441	0.7442600131034851	0.37119001150131226	0.3923099935054779	0.9904900193214417	-0.8987200260162354	0.31716999411582947	1.3203999996185303	-0.48054999113082886	-1.3241000175476074	-1.2371000051498413
Accomplice	-0.6341400146484375	0.15076999366283417	-0.1929599940776825	0.20061999559402466	0.5069900155067444	-0.7010599970817566	-0.12014000117778778	-1.3859000205993652	0.6375899910926819	-0.9820700287818909	0.13722999393939972	1.0347000360488892	-0.2995400130748749	0.0969960018992424	-0.07486599683761597	0.8855599761009216	0.9417300224304199	0.5212000012397766	0.42069000005722046	-0.9465799927711487	0.10467000305652618	1.472499966621399	-0.7396699786186218	-0.7673199772834778	-0.2714900076389313
Mercenaries	-0.10671000182628632	1.146399974822998	-0.3093700110912323	-0.15497000515460968	-0.37060999870300293	-0.4090299904346466	-0.6865699887275696	-1.620300054550171	0.5525199770927429	0.2120400071144104	0.4686799943447113	0.3390899896621704	-0.5264599919319153	0.03616200014948845	-0.02838600054383278	0.3335300087928772	-0.4601399898529053	0.7323099970817566	1.722499966621399	-0.10042999684810638	0.24376000463962555	0.54448002576828	0.17608000338077545	-2.0153000354766846	0.5962299704551697
Mercenary	-0.3696399927139282	0.4081299901008606	-0.3806400001049042	-0.07602100074291229	0.08791299909353256	-0.19728000462055206	0.2433599978685379	-1.3845000267028809	0.9901099801063538	-1.0377999544143677	0.25277000665664673	0.3469099998474121	-0.4502600133419037	0.1778700053691864	-0.18397000432014465	0.48447999358177185	0.35798001289367676	0.7213199734687805	1.2770999670028687	0.5416300296783447	-0.4810299873352051	0.9092199802398682	0.1442199945449829	-1.2625000476837158	-0.010910999961197376
Assassins	0.9238899946212769	0.2688699960708618	-0.07325299829244614	-0.5310400128364563	-0.3434300124645233	-0.7043099999427795	0.5298900008201599	-0.6050999760627747	0.6449499726295471	-0.773419976234436	0.4465300142765045	0.2541300058364868	-1.466599941253662	-0.5474100112915039	0.3868499994277954	0.4313099980354309	0.26596999168395996	0.5449399948120117	1.0022000074386597	0.9204000234603882	-0.9208300113677979	0.29155999422073364	0.44828000664711	-1.2338000535964966	0.5882099866867065
Assassin	0.5435400009155273	-0.22682000696659088	0.06259900331497192	0.13586999475955963	0.24052999913692474	-0.7015200257301331	0.8305500149726868	-0.21164999902248383	0.8804000020027161	-1.027400016784668	0.5327000021934509	0.5249900221824646	-1.6690000295639038	-0.6390799880027771	0.6119499802589417	0.2804499864578247	0.015282000415027142	0.8511999845504761	0.3982200026512146	0.683929979801178	-0.7445899844169617	0.10875999927520752	0.4856399893760681	-1.2086000442504883	0.6417800188064575
Executioners	-1.851099967956543	0.4462699890136719	0.3700299859046936	0.7527400255203247	-0.038805000483989716	-0.514270007610321	0.2856299877166748	-1.4981000423431396	-0.19176000356674194	-1.9192999601364136	-0.3018200099468231	0.6632999777793884	0.5576500296592712	1.3133000135421753	-1.138200044631958	0.2352599948644638	-0.6081900000572205	-0.44940000772476196	2.898900032043457	0.14731000363826752	-1.5266000032424927	-0.34747999906539917	-0.29111000895500183	0.08622799813747406	-1.1727999448776245
Executioner	-0.92153000831604	-0.10114999860525131	-0.7013099789619446	0.632889986038208	-0.39427000284194946	-1.783400058746338	-0.10493999719619751	-1.3274999856948853	0.571590006351471	-0.6091499924659729	0.6807600259780884	0.941860020160675	-0.1723400056362152	0.28349000215530396	0.23114000260829926	-0.07187700271606445	-0.27483999729156494	1.03410005569458	0.5233299732208252	0.018129000440239906	-0.7612800002098083	1.1611000299453735	0.018843999132514	-0.13843999803066254	-0.4778900146484375
Arsonists	-0.47703999280929565	0.7498999834060669	0.3494400084018707	0.049713000655174255	-0.7320299744606018	-0.17569999396800995	-0.6832699775695801	-2.060499906539917	1.3217999935150146	-0.6129999756813049	0.633080005645752	0.3356899917125702	0.14128999412059784	-0.06822499632835388	0.12963999807834625	0.4209100008010864	0.13693000376224518	-0.3402000069618225	1.2446999549865723	-0.6794800162315369	-0.2943100035190582	0.9218000173568726	-0.22567999362945557	-1.3739999532699585	-0.25874000787734985
Arsonist	-0.9434099793434143	-0.03183000162243843	0.5614100098609924	-0.020224999636411667	-0.020204000174999237	-0.28784000873565674	-0.42410001158714294	-1.5295000076293945	1.1861000061035156	-0.04659700021147728	0.8252699971199036	0.5646200180053711	-0.29919999837875366	-0.024822000414133072	0.2730900049209595	0.26708000898361206	1.05840003490448	1.329200029373169	0.28723999857902527	0.12767000496387482	0.20750999450683594	0.8542299866676331	-0.3418000042438507	-1.03410005569458	-0.8492100238800049
Squatters	-0.4847699999809265	0.21770000457763672	-0.28290000557899475	-0.3740200102329254	-0.2678700089454651	-1.1096999645233154	-0.5248500108718872	-2.152899980545044	0.7748500108718872	0.26875999569892883	-0.05800199881196022	-0.7613999843597412	-0.23506000638008118	0.3744499981403351	0.014696000143885612	0.29695001244544983	0.6531299948692322	0.14439000189304352	1.0597000122070312	-0.07900799810886383	-0.06463400274515152	0.6748899817466736	-0.5626599788665771	-1.3538000583648682	-0.6589900255203247
Squatter	-0.7381399869918823	0.21618999540805817	0.4140799939632416	0.7008600234985352	-0.6316499710083008	-0.32249999046325684	-0.5854899883270264	-1.0148999691009521	1.246399998664856	-0.5695199966430664	-0.5425699949264526	-0.8338900208473206	-0.4319300055503845	-0.02005399949848652	0.6323599815368652	2.101599931716919	1.246500015258789	-0.7171499729156494	-0.8980100154876709	0.38120999932289124	-0.5756499767303467	-0.8757699728012085	-0.06236099824309349	-0.8744900226593018	-0.2642900049686432
Lawbreakers	-0.48750999569892883	1.6247999668121338	-0.2868199944496155	0.18322999775409698	-0.4012100100517273	-0.6601399779319763	-0.7422500252723694	-2.245300054550171	0.07140900194644928	-0.88059002161026	-0.8960000276565552	0.3396899998188019	0.17892000079154968	0.25929999351501465	0.44286999106407166	0.7368199825286865	-0.11388000100851059	-0.33375000953674316	1.2718000411987305	0.048611998558044434	-0.35155001282691956	0.4430199861526489	0.13357000052928925	-1.0077999830245972	-0.08502300083637238
Lawbreaker	-1.267899990081787	0.8730900287628174	-0.777239978313446	0.6535500288009644	-0.6085600256919861	-0.4793500006198883	0.20769000053405762	-1.7522000074386597	-0.059108998626470566	-1.190000057220459	-0.9310399889945984	0.6904500126838684	1.382699966430664	0.13519999384880066	1.4112999439239502	0.21356000006198883	-0.0380139984190464	0.9752900004386902	0.9347500205039978	-0.11823999881744385	-0.9830300211906433	1.13100004196167	-0.4668700098991394	-1.034999966621399	-0.4176599979400635
Pimps	-1.0586999654769897	1.5058000087738037	-0.004590400028973818	-0.1671600043773651	0.336899995803833	0.5002800226211548	-0.3349500000476837	-1.406499981880188	0.3314700126647949	0.2234800010919571	-0.5479999780654907	0.2084999978542328	-1.1426000595092773	-0.40463998913764954	-0.8152899742126465	0.34233999252319336	-0.2460400015115738	-0.9585899710655212	1.3597999811172485	0.6196200251579285	0.6687099933624268	1.0326000452041626	0.4402799904346466	-0.9123499989509583	0.6250699758529663
Pimp	-1.3252999782562256	1.079699993133545	-0.31797999143600464	0.10377000272274017	0.18960000574588776	-0.15906000137329102	-0.10509999841451645	-0.04019799828529358	0.3119499981403351	-0.20059999823570251	-0.9190400242805481	0.847540020942688	-3.0104000568389893	-0.7218599915504456	0.006998899858444929	0.1532599925994873	0.39361000061035156	-0.14895999431610107	0.17279000580310822	0.9391000270843506	0.5062800049781799	1.2177000045776367	1.0500999689102173	-0.6078699827194214	0.7422099709510803
Murderers	0.48493000864982605	0.7573599815368652	0.5629000067710876	0.5486500263214111	-0.28446999192237854	-0.3014400005340576	0.3486799895763397	-1.7378000020980835	0.3942300081253052	0.5488700270652771	0.4117400050163269	0.34676000475883484	-1.0733000040054321	-0.36217001080513	-0.2739500105381012	0.9854199886322021	-0.5214899778366089	-0.38429000973701477	1.8765000104904175	-0.787909984588623	0.6108700037002563	1.0743000507354736	-0.6038299798965454	-1.8738000392913818	0.19933000206947327
Murderer	-0.6663399934768677	0.1531900018453598	0.004313900135457516	0.5059900283813477	-0.3483000099658966	-0.9640700221061707	0.4127500057220459	-0.7934600114822388	0.32482999563217163	0.49518999457359314	0.25586000084877014	0.6388900279998779	-1.753499984741211	-0.15445999801158905	0.5949000120162964	0.7735900282859802	0.5211499929428101	0.6070399880409241	0.6238099932670593	-1.026900053024292	1.0513999462127686	1.318600058555603	0.3070800006389618	-1.7386000156402588	0.3595699965953827
Scoundrels	0.509119987487793	-0.3060399889945984	-1.212499976158142	1.3483999967575073	-1.273300051689148	-0.5192400217056274	-0.6536300182342529	-2.5929999351501465	0.2575500011444092	-0.4002099931240082	0.01424300018697977	0.7606099843978882	-0.2793700098991394	0.6299499869346619	-0.518310010433197	0.20712999999523163	0.2779200077056885	-0.23884999752044678	1.6928000450134277	0.8294199705123901	-1.1512999534606934	1.6162999868392944	-0.22663000226020813	0.13691000640392303	1.054800033569336
Scoundrel	-1.2421000003814697	0.15785999596118927	0.12887999415397644	0.13843999803066254	-0.8420600295066833	-0.40630999207496643	-0.6858400106430054	-1.7555999755859375	-1.0048999786376953	0.4631499946117401	1.2232999801635742	0.05750399827957153	0.15257999300956726	0.2736000120639801	0.3533099889755249	0.5693899989128113	1.409500002861023	-0.27107998728752136	1.5496000051498413	0.7301300168037415	-0.32117000222206116	1.0506999492645264	-0.25916001200675964	-0.9862800240516663	-1.125100016593933
Swindler	-0.8251799941062927	0.09462600201368332	0.20769000053405762	0.09325399994850159	0.14309999346733093	-0.5276600122451782	-0.7560399770736694	-1.8783999681472778	0.7817999720573425	-1.131700038909912	0.2602100074291229	0.1437699943780899	0.21705999970436096	-0.34747999906539917	0.27562999725341797	0.43540000915527344	0.7752100229263306	0.37220001220703125	1.1438000202178955	0.7416499853134155	0.25856998562812805	0.4395799934864044	-0.14659999310970306	-0.4740400016307831	-0.3723300099372864
Goons	0.16356000304222107	1.8357000350952148	0.0352029986679554	-0.7196199893951416	-0.15227000415325165	-0.13534000515937805	-0.6381800174713135	-1.1877000331878662	-0.0943399965763092	0.2929700016975403	-0.7106900215148926	0.5908100008964539	-1.749500036239624	-0.16393999755382538	-0.45155999064445496	0.6886900067329407	0.17365999519824982	-0.7826799750328064	0.5928000211715698	0.4974200129508972	0.5091099739074707	0.91566002368927	0.4289200007915497	-1.319700002670288	0.3460400104522705
Goon	-0.3931399881839752	0.8773699998855591	0.003036299953237176	-0.4021399915218353	0.3733699917793274	-0.190420001745224	0.03601599857211113	-0.4691999852657318	-0.09854599833488464	-0.3191100060939789	-1.1325000524520874	1.007099986076355	-1.936900019645691	-0.5740500092506409	0.2708800137042999	0.6524999737739563	0.8686400055885315	-0.3890500068664551	-0.02653699927031994	1.114300012588501	0.7368900179862976	1.003600001335144	0.35839998722076416	-0.5340700149536133	0.6924300193786621
Warlords	0.08410900086164474	0.021400000900030136	-0.15387000143527985	-0.17757999897003174	-0.9289900064468384	-1.1497000455856323	-0.03348800167441368	-1.7615000009536743	0.6428700089454651	-1.3564000129699707	0.6314399838447571	0.35993000864982605	-0.24501000344753265	1.0694999694824219	0.2244900017976761	0.48903000354766846	0.4008899927139282	1.100100040435791	1.3894000053405762	0.9605299830436707	-1.3634999990463257	0.4150199890136719	-0.9753999710083008	-0.4270400106906891	0.6370700001716614
Warlord	-0.4726099967956543	0.29993999004364014	-0.26805999875068665	0.24583999812602997	-0.6120700240135193	-1.4387999773025513	-0.6091099977493286	-1.4753999710083008	0.6424999833106995	-0.8705199956893921	0.34529000520706177	0.4274199903011322	-0.13589000701904297	-0.1520099937915802	0.4750699996948242	0.14789000153541565	0.2833699882030487	0.19945000112056732	1.0379999876022339	0.5829100012779236	0.3407300114631653	1.0290000438690186	-0.9228799939155579	-1.9072999954223633	0.11189000308513641
Villains	0.23622000217437744	0.28205999732017517	0.6280800104141235	-0.36333999037742615	-0.0453840009868145	-0.034320998936891556	0.7862499952316284	-1.3756999969482422	0.2820900082588196	-1.4521000385284424	0.28819000720977783	0.5397400259971619	-1.4256000518798828	0.058837998658418655	-0.3285500109195709	0.7409499883651733	-0.17484000325202942	-0.4702000021934509	1.4463000297546387	0.5077900290489197	-0.47481998801231384	0.5094000101089478	-1.3468999862670898	-1.0198999643325806	0.8301699757575989
Villain	-0.20885999500751495	-0.2561599910259247	0.8104400038719177	0.1659799963235855	0.4002000093460083	-0.4442700147628784	1.0189000368118286	-0.5216500163078308	0.15251000225543976	-1.5183000564575195	-0.17065000534057617	1.163100004196167	-1.7684999704360962	0.22020000219345093	-0.02164600044488907	0.7474300265312195	0.1704300045967102	0.21806000173091888	0.5173699855804443	0.4352400004863739	-0.25422999262809753	1.513100028038025	-0.72434002161026	-0.9782599806785583	0.5373600125312805
Backstabbers	0.5568699836730957	0.2322700023651123	0.14111000299453735	1.192199945449829	-1.1999000310897827	0.5665500164031982	0.8684999942779541	-1.131600022315979	-0.7379599809646606	-0.4073199927806854	-1.4019999504089355	0.22071999311447144	-0.7075899839401245	0.06254000216722488	-0.29464998841285706	1.9220000505447388	-1.4759999513626099	-0.015340999700129032	2.4709999561309814	0.6935700178146362	-0.6016299724578857	1.184399962425232	-1.461300015449524	-1.2939000129699707	-0.7422999739646912
Backstabber	-0.4133000075817108	-0.39873000979423523	-0.10369999706745148	-0.13663999736309052	-0.394540011882782	-0.9103699922561646	0.7075099945068359	-0.7227200269699097	-0.10614000260829926	0.26534000039100647	-1.2038999795913696	-0.34711000323295593	-0.4212999939918518	-0.47543999552726746	-0.06643400341272354	1.3782999515533447	0.8868200182914734	-0.17430000007152557	1.5192999839782715	-0.051569998264312744	0.6222500205039978	1.22160005569458	-0.505370020866394	-0.22374999523162842	-0.8011900186538696
Kidnappers	-0.3786799907684326	1.1929999589920044	0.25060001015663147	0.1265300065279007	-0.7802299857139587	-1.2791999578475952	-0.17688000202178955	-1.711400032043457	0.17753000557422638	0.939490020275116	0.5702900290489197	0.14776000380516052	-0.5706599950790405	-0.4181100130081177	-0.45423999428749084	0.24402999877929688	-0.1601099967956543	0.06749700009822845	1.3631000518798828	-1.4048000574111938	-0.037661001086235046	0.6833699941635132	-0.43650999665260315	-1.5115000009536743	-0.7378900051116943
Kidnapper	-0.7607499957084656	0.9168400168418884	-0.08482100069522858	0.9023299813270569	-0.6582499742507935	-0.5977399945259094	-0.2155900001525879	-0.9558600187301636	0.6815999746322632	-0.4940899908542633	0.24845999479293823	-0.08042000234127045	-0.6098600029945374	-0.2283799946308136	0.640779972076416	1.4767999649047852	0.6846699714660645	-0.12134999781847	-0.2470099925994873	-0.7465699911117554	0.7254700064659119	0.32027000188827515	-0.06892099976539612	-1.2653000354766846	-0.3631399869918823
Crooks	0.19865000247955322	0.8965200185775757	0.40244999527931213	-0.14466999471187592	-0.49226999282836914	0.7914999723434448	-0.3525800108909607	-1.905500054359436	0.21387000381946564	-0.7519099712371826	-0.39419999718666077	1.0110000371932983	-1.2214000225067139	-0.17605000734329224	-0.6030399799346924	-0.008369999937713146	-0.6841300129890442	-0.0941770002245903	1.3300000429153442	0.826990008354187	0.7236300110816956	0.7114999890327454	0.25060999393463135	-0.9392899870872498	0.045249998569488525
Crook	-1.0123000144958496	0.2656700015068054	0.044367000460624695	0.5245000123977661	-0.0104179996997118	-0.004650900140404701	-0.7770799994468689	-1.0389000177383423	0.6482700109481812	-0.3980199992656708	-0.2682799994945526	1.1295000314712524	-1.414199948310852	-0.19564999639987946	0.15368999540805817	-0.20026999711990356	0.1842699944972992	0.10526999831199646	0.6966099739074707	0.17576000094413757	1.0148999691009521	1.2132999897003174	0.7329599857330322	-0.8452699780464172	-0.39337000250816345
Sidekicks	-0.2150000035762787	0.7007499933242798	1.1174999475479126	-0.8320199847221375	-0.16050000488758087	-0.03836999833583832	-0.09131599962711334	-2.2146999835968018	0.17359000444412231	-0.5768899917602539	0.3027999997138977	0.2792600095272064	0.20333999395370483	-0.3022100031375885	-0.23659999668598175	0.7295799851417542	0.5296199917793274	-0.652209997177124	1.5600999593734741	0.7837200164794922	0.07324600219726562	0.6646599769592285	-0.28979000449180603	-0.6885300278663635	-0.24034999310970306
Sidekick	-0.2730500102043152	0.5943800210952759	0.5833399891853333	-0.596750020980835	0.9146000146865845	-0.5984799861907959	0.03462899848818779	-0.8026900291442871	0.41955000162124634	-0.586929976940155	-0.22096000611782074	0.5033000111579895	-1.1766999959945679	-0.6901800036430359	-0.44690999388694763	0.5720700025558472	0.8793799877166748	-0.11597000062465668	1.1332999467849731	0.7207800149917603	0.3337000012397766	0.6093500256538391	0.17956000566482544	-0.5564699769020081	-0.6902599930763245
Henchmen	-0.5713899731636047	0.8235099911689758	-0.5214999914169312	0.3260299861431122	0.34692999720573425	-1.4185999631881714	-0.8022599816322327	-2.5302999019622803	0.26302000880241394	-0.5974400043487549	0.49856001138687134	0.7227299809455872	0.0575219988822937	0.32495999336242676	-0.8714799880981445	0.3270600140094757	-0.8805500268936157	0.571340024471283	0.9695000052452087	-0.22341999411582947	0.35363999009132385	1.535099983215332	0.12580999732017517	-1.1656999588012695	-0.22990000247955322
Henchman	-0.7756199836730957	0.5291299819946289	0.6762999892234802	0.7333300113677979	0.0853860005736351	-1.1952999830245972	-0.32774001359939575	-1.3702000379562378	0.9776600003242493	-1.5049999952316284	0.800599992275238	0.8555799722671509	-0.3458699882030487	0.04537000134587288	0.9883099794387817	0.21484999358654022	0.21776999533176422	0.4559299945831299	0.4186300039291382	-0.06358099728822708	0.5067800283432007	1.6535999774932861	-0.3985300064086914	-0.875190019607544	-0.42364999651908875
Stooges	0.34005001187324524	0.3433699905872345	0.9616100192070007	-0.5589500069618225	-0.1578100025653839	-0.2224999964237213	0.2237199991941452	-1.4229999780654907	0.3546999990940094	-0.9101600050926208	-0.07384499907493591	0.5974799990653992	-0.6488800048828125	-0.15988999605178833	-0.28154000639915466	0.24985000491142273	-0.22308999300003052	-0.07754600048065186	1.169800043106079	1.149999976158142	-0.29440999031066895	0.8542199730873108	-0.043549999594688416	-0.9854900240898132	0.1435600072145462
Stooge	-0.5771600008010864	0.7572299838066101	-0.6770099997520447	-0.293069988489151	0.3259199857711792	-1.1240999698638916	-0.7496600151062012	-1.9853999614715576	0.2902899980545044	-0.6536300182342529	-0.2006399929523468	0.4206799864768982	-0.27417001128196716	-0.10623999685049057	0.290910005569458	-0.25279998779296875	0.2809000015258789	0.43035000562667847	0.7842100262641907	0.28525999188423157	0.896399974822998	0.7743200063705444	-0.25516998767852783	-0.8512899875640869	-0.643809974193573
Hoodlums	-0.727869987487793	1.0441999435424805	0.32447001338005066	-0.09418699890375137	-0.19378000497817993	0.13009999692440033	-0.3722600042819977	-2.7334001064300537	-0.48827001452445984	-0.09367399662733078	-0.8384100198745728	0.0156909991055727	-0.15941999852657318	0.17372000217437744	-0.4491199851036072	0.2327599972486496	0.682129979133606	-0.43553000688552856	1.111899971961975	0.28328999876976013	1.2122999429702759	0.8161100149154663	-0.4557200074195862	-1.3105000257492065	0.9713299870491028
Hoodlum	-0.928659975528717	0.415910005569458	0.08268799632787704	-0.006337100174278021	0.5968400239944458	0.10029000043869019	0.25387999415397644	-1.3920999765396118	0.435479998588562	-0.9081599712371826	-1.4430999755859375	0.24032999575138092	-0.409280002117157	-0.44562000036239624	0.04322800040245056	0.68190997838974	0.8450599908828735	0.0783189982175827	1.2583999633789062	0.8723400235176086	0.698360025882721	0.9812399744987488	-0.07797899842262268	-1.0473999977111816	0.15557000041007996
Tough	-0.009358399547636509	0.3753499984741211	-0.7022899985313416	-0.5643900036811829	0.2718299925327301	1.1330000162124634	0.9924399852752686	-0.563319981098175	0.3837999999523163	-0.5147500038146973	-0.8161900043487549	0.8351899981498718	-3.628700017929077	0.5268200039863586	0.6875	0.07186400145292282	0.1221499964594841	-0.8636999726295471	0.23267999291419983	-0.6431999802589417	0.14348000288009644	0.963729977607727	0.29394999146461487	-0.2842099964618683	-0.7202000021934509
Delinquents	-0.63059002161026	0.950760006904602	-0.061524998396635056	0.15488000214099884	0.6138299703598022	-0.3830299973487854	-0.1340699940919876	-2.4328999519348145	0.24493999779224396	-0.847000002861023	-0.3826099932193756	0.8908900022506714	0.42590999603271484	-0.2988399863243103	0.12445999681949615	0.11421000212430954	-0.564329981803894	0.2633799910545349	1.2026000022888184	0.2587200105190277	0.5576300024986267	0.9610400199890137	-0.4161500036716461	-0.8331599831581116	0.020052999258041382
Delinquent	-0.6380900144577026	1.1052000522613525	-0.6955599784851074	0.4854699969291687	1.212399959564209	-0.23463000357151031	-0.41187000274658203	-2.3317999839782715	0.2390899956226349	-0.774179995059967	-0.31946998834609985	0.027101999148726463	-0.49202001094818115	-0.36348000168800354	0.8715999722480774	-0.3472299873828888	0.6982200145721436	0.013240000233054161	0.4916599988937378	0.21536999940872192	0.6570199728012085	0.885890007019043	-0.5039899945259094	-0.9850000143051147	-0.13805000483989716
Marauders	-0.4373199939727783	0.27175000309944153	0.8065500259399414	-0.24055999517440796	-0.9672899842262268	-1.190999984741211	0.6685299873352051	-1.9184000492095947	0.9302099943161011	-0.9909999966621399	0.3308199942111969	-0.21275000274181366	-0.050721000880002975	0.6239299774169922	-0.06440100073814392	0.6962500214576721	0.10863000154495239	0.6985399723052979	0.8072400093078613	0.5870199799537659	-0.9968100190162659	0.19891999661922455	0.10045000165700912	-0.511900007724762	0.08948200196027756
Marauder	-0.8122400045394897	0.09675800055265427	0.7974100112915039	-0.12816999852657318	-1.2276999950408936	-1.5260000228881836	0.34248998761177063	-1.4155000448226929	0.35152000188827515	-1.131700038909912	1.0225000381469727	0.07915700227022171	-0.5370100140571594	0.11947999894618988	0.1850699931383133	0.7088599801063538	0.4322200119495392	1.271299958229065	1.007699966430664	1.468000054359436	-0.4782400131225586	0.8094900250434875	-0.0386819988489151	-0.3644599914550781	-0.6438699960708618
Vandals	-0.3435699939727783	0.4895400106906891	-0.11401999741792679	-0.21038000285625458	-0.9889600276947021	-0.689050018787384	0.05479300022125244	-2.052299976348877	0.8240600228309631	-0.012884000316262245	0.9379900097846985	-0.04722899943590164	0.005695799831300974	-0.26815998554229736	0.17315000295639038	0.28692999482154846	0.5289099812507629	0.07722499966621399	0.936489999294281	-0.6350399851799011	-0.22095000743865967	0.5163000226020813	-0.014151000417768955	-1.593000054359436	0.5059199929237366
Vandal	-0.7340400218963623	0.19438999891281128	-0.054437000304460526	-0.19397999346256256	0.29249000549316406	-0.6957399845123291	-0.6023499965667725	-0.7213600277900696	0.9754199981689453	-0.31292998790740967	0.15730999410152435	0.271699994802475	-0.4529699981212616	-0.12687000632286072	-0.47554001212120056	0.13016000390052795	0.2883099913597107	0.5641700029373169	0.9226199984550476	0.6672999858856201	0.11068999767303467	0.9371200203895569	0.04978400096297264	-0.9851999878883362	0.13011999428272247
Carpetbagger	0.11839000135660172	0.6672700047492981	1.0649000406265259	0.5125899910926819	0.10273999720811844	-2.0390000343322754	1.006600022315979	-1.8831000328063965	0.7993800044059753	-1.4474999904632568	-0.006698499899357557	0.6887699961662292	0.7375500202178955	0.7769899964332581	0.05539200082421303	-0.027713999152183533	0.5171899795532227	1.541200041770935	0.8877999782562256	1.1921000480651855	0.45796999335289	0.018257999792695045	0.1458600014448166	-1.4026999473571777	-0.7023599743843079
Killers	0.04682999849319458	0.6365299820899963	0.5231299996376038	0.40564998984336853	-0.017407000064849854	-0.5622699856758118	0.7996000051498413	-0.16062000393867493	-0.008540400303900242	-0.5321699976921082	0.18915000557899475	-0.0712599977850914	-2.0492000579833984	-0.15897999703884125	-0.09265299886465073	0.9591100215911865	-0.5628899931907654	0.1035899966955185	1.024399995803833	-0.15070000290870667	-0.28881001472473145	0.6002299785614014	-0.20905999839305878	-1.1475000381469727	1.0293999910354614
Killer	-0.16457000374794006	0.29881998896598816	0.049855999648571014	0.3768100142478943	0.9423999786376953	0.005679899826645851	1.2777999639511108	0.06208200007677078	0.7059999704360962	-0.04342599958181381	0.46737998723983765	0.4902600049972534	-2.549499988555908	-0.18556000292301178	0.6028299927711487	0.4437299966812134	0.2867499887943268	-0.003401600057259202	0.1409900039434433	-0.20023000240325928	-0.1510400027036667	1.0600999593734741	-0.2006099969148636	-0.7635999917984009	0.515470027923584
Incontinent	-0.9710100293159485	-0.23746000230312347	-0.38872000575065613	0.010099000297486782	-0.08853799849748611	-0.33945998549461365	-0.9326599836349487	-1.9132000207901	-0.022205999121069908	-0.46893998980522156	-0.32975998520851135	-0.23551000654697418	0.20366999506950378	-0.2640100121498108	0.07788600027561188	0.8744900226593018	1.170300006866455	0.32780998945236206	0.8959699869155884	0.05634000152349472	0.2879300117492676	1.5397000312805176	-0.7826600074768066	-1.1282000541687012	-1.0401999950408936
Sniveling	-0.6461499929428101	-0.09139800071716309	-0.17809000611305237	1.013100028038025	-0.5230000019073486	0.2759700119495392	-0.3359600007534027	-3.0625	0.1271200031042099	-1.514799952507019	-1.8039000034332275	-0.5733299851417542	1.6024999618530273	-0.9720799922943115	-0.5049800276756287	-0.4970499873161316	0.19147999584674835	0.2666800022125244	0.11429999768733978	0.31613001227378845	0.3959200084209442	1.2496000528335571	-0.6217799782752991	-1.5671000480651855	-1.3775999546051025
Breastfed	-1.507200002670288	0.3424200117588043	0.5795199871063232	-0.12596000730991364	-0.20464999973773956	0.15299999713897705	-0.7531999945640564	-2.229599952697754	-1.44350004196167	-0.7155500054359436	-0.1629199981689453	0.13916000723838806	-0.027706999331712723	0.2971000075340271	-1.3919999599456787	0.42458000779151917	1.0152000188827515	-0.3341600000858307	2.1405999660491943	-1.0250999927520752	0.8323400020599365	0.9556499719619751	-0.5041199922561646	-1.0917999744415283	-0.9019299745559692
Apprentice	-0.6472300291061401	0.5696200132369995	-0.4318400025367737	-1.233299970626831	0.6909700036048889	-1.0305999517440796	0.48787999153137207	-1.219099998474121	0.31011998653411865	-1.5679999589920044	0.20917999744415283	0.6560500264167786	-1.6821000576019287	-0.22912999987602234	0.722599983215332	-0.2828899919986725	0.3407599925994873	0.0023980000987648964	-0.38141998648643494	0.21347999572753906	-0.33348000049591064	0.48368000984191895	-0.714709997177124	-0.719980001449585	0.0008104899898171425
Insufferable	-0.6286399960517883	-0.09768199920654297	-0.5396100282669067	0.017318999394774437	0.08478199690580368	0.6729699969291687	-0.25512999296188354	-1.823199987411499	-0.03445599973201752	-0.38440001010894775	-1.0435999631881714	0.8730900287628174	-0.04550899937748909	0.19182999432086945	0.18348999321460724	0.8826900124549866	1.0500999689102173	0.5666700005531311	0.9648399949073792	-0.1954600065946579	0.30632999539375305	1.6490000486373901	-0.38888001441955566	-1.0580999851226807	-0.8519999980926514
Spineless	-0.2364400029182434	-0.4809499979019165	-0.8039900064468384	-0.34727999567985535	0.28679999709129333	0.2549700140953064	-0.17270000278949738	-2.265199899673462	-0.4511899948120117	-0.5252500176429749	-1.0468000173568726	-0.0892999991774559	-0.6149700284004211	-0.08641400188207626	-0.2899700105190277	-0.27619999647140503	0.4318000078201294	-0.027824999764561653	1.1454999446868896	0.6322299838066101	1.1089999675750732	1.7984000444412231	-0.10986000299453735	-1.4983999729156494	-0.9091100096702576
Backwoods	-0.7633200287818909	0.1838500052690506	0.11518999934196472	0.23558999598026276	-0.32276999950408936	0.5402500033378601	0.23109999299049377	-1.7379000186920166	0.0007460300112143159	-0.5629900097846985	-0.8439499735832214	-0.014054999686777592	-1.2610000371932983	-0.8597800135612488	0.21383999288082123	0.05701800063252449	0.4581100046634674	-0.26649999618530273	2.1867001056671143	0.8505200147628784	0.37185999751091003	1.1450999975204468	0.01597299985587597	-1.531599998474121	1.006500005722046
Impotent	-0.3822300136089325	0.058122001588344574	-1.0734000205993652	-0.005354099906980991	-0.059105001389980316	-0.23051999509334564	-0.3352600038051605	-1.343000054359436	-0.20565000176429749	-0.2991099953651428	-0.43553000688552856	0.9462699890136719	-0.670009970664978	0.2187100052833557	-0.20512999594211578	0.5803099870681763	0.2603999972343445	0.3143500089645386	0.7839099764823914	-0.3814699947834015	0.19338999688625336	1.6908999681472778	-0.6574900150299072	-0.5213000178337097	-1.2135000228881836
Unwitting	-0.33052998781204224	0.014220000244677067	-0.3307900130748749	0.048416998237371445	0.5089200139045715	-0.7855899930000305	-0.5126299858093262	-2.354599952697754	0.8332099914550781	-0.5986499786376953	0.17788000404834747	0.17586000263690948	0.09708499908447266	0.39653998613357544	-0.5329399704933167	0.2653999924659729	1.2166999578475952	0.7689499855041504	0.661549985408783	-0.01810299977660179	-0.3014799952507019	1.3920999765396118	-0.7016400098800659	-1.698799967765808	-1.111199975013733
Insignificant	0.11992999911308289	-0.784030020236969	-0.6850000023841858	0.4963200092315674	0.2663800120353699	0.8812599778175354	0.8353999853134155	-2.18179988861084	-0.4097299873828888	-1.055899977684021	-1.6555999517440796	0.42778998613357544	-1.7563999891281128	0.756309986114502	0.2090499997138977	0.7380499839782715	0.7372999787330627	0.2995400130748749	1.0494999885559082	-0.05917299911379814	0.16245999932289124	0.7230499982833862	-0.8614699840545654	0.047908999025821686	-1.226699948310852
Self-Satisfied	-0.6733800172805786	-0.7368699908256531	-0.5255799889564514	0.8966299891471863	0.1009100005030632	0.5506700277328491	-0.29111000895500183	-2.5071001052856445	1.5023000240325928	-0.942550003528595	-1.3615000247955322	-0.03580800071358681	-0.5399199724197388	0.8707399964332581	-0.38982000946998596	0.7490800023078918	0.8005899786949158	0.10081999748945236	1.3873000144958496	-0.1667499989271164	1.5723999738693237	1.9004000425338745	-0.12931999564170837	-0.9219200015068054	-2.3232998847961426
Bearded	-1.2934999465942383	-0.5111500024795532	-0.36579999327659607	0.047290001064538956	0.07341700047254562	-0.1625799983739853	0.4556800127029419	-1.045699954032898	-0.6446899771690369	-0.8019099831581116	-0.30956000089645386	0.14571000635623932	-1.4402999877929688	-0.5195800065994263	-0.5619000196456909	-0.08288600295782089	1.4407999515533447	-0.5225300192832947	1.204800009727478	0.9896299839019775	0.4604099988937378	1.479099988937378	-0.2889600098133087	-1.541200041770935	-0.17441000044345856
Dishonest	0.4128299951553345	-0.12487000226974487	-1.0494999885559082	-0.06476599723100662	0.7979900240898132	0.18556000292301178	-0.3060699999332428	-1.6105999946594238	0.330810010433197	-0.46125999093055725	-1.145900011062622	0.6588199734687805	-1.2661999464035034	-0.37731999158859253	-0.39320001006126404	0.26600000262260437	-0.1263899952173233	0.360509991645813	1.2482000589370728	-0.8164499998092651	1.3213000297546387	1.0094000101089478	-0.9107999801635742	-1.5331000089645386	-1.4221999645233154
Pallid	-1.2389999628067017	-0.6497700214385986	-0.09273499995470047	0.6937999725341797	0.7423999905586243	-0.6376199722290039	-0.9698899984359741	-1.6694999933242798	0.6178900003433228	-0.8328800201416016	-0.3365499973297119	0.3595300018787384	0.25422999262809753	-0.5039299726486206	-0.461899995803833	0.5279800295829773	1.1612000465393066	0.3143799901008606	1.1749000549316406	0.887660026550293	0.355679988861084	1.2151000499725342	-0.47576001286506653	-0.5243899822235107	-1.2062000036239624
Melancholy	-0.85725998878479	-0.8254500031471252	-0.12431000173091888	0.6844499707221985	-0.4027499854564667	0.7102599740028381	0.9922500252723694	-1.2080999612808228	0.8676699995994568	-1.219599962234497	-1.374899983406067	0.9350000023841858	-0.9170600175857544	0.4585700035095215	0.5505200028419495	0.16630999743938446	0.3396899998188019	1.0475000143051147	1.1038000583648682	0.39761000871658325	-0.12928999960422516	0.39287999272346497	-0.34325000643730164	-0.17642000317573547	-0.025088999420404434
Deranged	-0.3867799937725067	-0.164560005068779	0.1488499939441681	0.15809999406337738	0.5699899792671204	0.3853200078010559	0.4568899869918823	-1.5089999437332153	-0.16990000009536743	-0.9879099726676941	-1.146299958229065	0.5896700024604797	-0.5691800117492676	0.04779199883341789	0.08304499834775925	0.5396900177001953	0.8043299913406372	0.5395399928092957	1.2244999408721924	-0.07478000223636627	0.9342100024223328	1.1252000331878662	-0.6488999724388123	-1.426200032234192	-0.29927998781204224
Misinformed	0.29291000962257385	-0.38488999009132385	-0.17163999378681183	-0.5454400181770325	0.05476599931716919	-0.18071000277996063	-0.06251499801874161	-1.8289999961853027	-0.7341700196266174	0.11248999834060669	-1.5394999980926514	0.8996700048446655	-0.6529499888420105	-0.48857998847961426	0.28696000576019287	0.47411999106407166	0.8055899739265442	0.7941200137138367	1.510599970817566	-0.46046000719070435	1.3526999950408936	0.49893999099731445	-0.8573099970817566	-0.7930099964141846	-1.961400032043457
Hairless	-1.3285000324249268	-0.7303900122642517	-0.808650016784668	-0.07503499835729599	-0.47661998867988586	0.15950000286102295	0.9243299961090088	-1.9538999795913696	-0.5474100112915039	0.2504799962043762	0.0512240007519722	-0.8442400097846985	-0.6703000068664551	-1.8518999814987183	-1.3112000226974487	0.2848599851131439	0.7081599831581116	-1.4117000102996826	1.4559999704360962	-0.8959599733352661	-0.30998000502586365	2.371799945831299	-0.47843998670578003	-1.1083999872207642	-0.7568899989128113
Medicated	-1.0987000465393066	0.34303998947143555	-0.886389970779419	0.0440870001912117	-0.1206900030374527	1.3251999616622925	-0.7165799736976624	-1.479099988937378	0.32861000299453735	-1.3873000144958496	-0.5861999988555908	1.770799994468689	-1.0441999435424805	-1.8300000429153442	-0.3113900125026703	0.015331000089645386	0.260019987821579	-0.19631999731063843	1.034600019454956	-0.26280999183654785	-0.6394500136375427	0.39485999941825867	0.4612500071525574	0.022120000794529915	1.041700005531311
Orthodox	-0.8751500248908997	-0.6220999956130981	-0.29488998651504517	0.0803930014371872	-0.6047700047492981	-1.3871999979019165	0.5179799795150757	-1.9139000177383423	0.3813199996948242	-0.4196000099182129	-0.6350100040435791	-0.436489999294281	-1.2549999952316284	0.7172499895095825	-0.7876499891281128	-1.0133999586105347	1.0743000507354736	0.3519600033760071	0.14594000577926636	1.2598999738693237	0.33698999881744385	1.3812999725341797	-2.0083000659942627	-1.707800030708313	0.11328999698162079
Dimwitted	-0.3900200128555298	-0.055337999016046524	0.10405000299215317	-0.1554899960756302	-0.059748001396656036	0.14858999848365784	-0.32409000396728516	-2.286600112915039	0.3382500112056732	-1.2717000246047974	-1.1929999589920044	-0.11941999942064285	0.3963199853897095	-0.030643999576568604	0.5669500231742859	0.661109983921051	1.0638999938964844	0.14951999485492706	1.2130999565124512	0.3674300014972687	0.721809983253479	1.1088999509811401	-0.4963800013065338	-1.0118000507354736	-1.3746999502182007
Dog	-1.2419999837875366	-0.3598000109195709	0.5728499889373779	0.36675000190734863	0.6002100110054016	-0.18897999823093414	1.2728999853134155	-0.36921000480651855	0.08907999843358994	0.40338999032974243	0.25130000710487366	-0.25547999143600464	-3.9209001064300537	-1.1100000143051147	-0.2130800038576126	-0.2384600043296814	0.953220009803772	-0.5274999737739563	-0.000780489994212985	-0.35771000385284424	0.5558199882507324	0.778689980506897	0.46873998641967773	-0.7780299782752991	0.7837799787521362
IB	0.5778499841690063	0.8756399750709534	0.22029000520706177	-0.301470011472702	0.09649500250816345	-0.15037000179290771	0.07028000056743622	0.004233300220221281	1.18149995803833	-0.5042600035667419	-1.3595999479293823	0.3807600140571594	-1.538599967956543	0.049160998314619064	0.1694599986076355	-0.23969000577926636	0.08171500265598297	0.5112400054931641	0.14993999898433685	0.4112200140953064	-0.20892000198364258	-0.5233299732208252	-0.31488001346588135	0.1607999950647354	-0.010728999972343445
Errand	-1.1568000316619873	0.9089699983596802	-0.29545000195503235	0.11090999841690063	1.0916999578475952	-0.0887719988822937	0.0884540006518364	-1.6491999626159668	1.2704999446868896	-0.8252999782562256	-0.8110100030899048	0.6015200018882751	-1.0427000522613525	0.9244400262832642	0.7062399983406067	0.49601998925209045	0.6940199732780457	-0.7013099789619446	0.2750999927520752	-0.49755001068115234	-0.03141099959611893	1.191100001335144	0.5981400012969971	-0.5613600015640259	-0.23332999646663666
Tin	0.11496999859809875	-0.2930999994277954	0.484609991312027	0.51214998960495	-1.3200000524520874	-0.3873400092124939	-0.41418999433517456	0.39100998640060425	0.7308700084686279	0.5192800164222717	0.09539099782705307	-0.2826699912548065	-1.8990999460220337	0.08760800212621689	-0.07399699836969376	-0.1046999990940094	1.2874000072479248	-0.023552000522613525	-0.6686000227928162	1.1404999494552612	-0.7175499796867371	0.4823499917984009	0.4567500054836273	1.007099986076355	-0.32749998569488525
Academics	0.4605399966239929	0.5297099947929382	-0.7203900218009949	-1.1273000240325928	-0.10162000358104706	-0.20924000442028046	0.11648000031709671	-1.961899995803833	0.7485600113868713	-0.4756700098514557	-0.9317799806594849	-0.09608200192451477	-1.3746999502182007	0.3143100142478943	0.6700400114059448	0.02558800019323826	-0.24160000681877136	-0.5119600296020508	0.8506199717521667	-0.3425599932670593	0.0659250020980835	0.05799100175499916	-1.3346999883651733	-0.8570399880409241	-0.7384899854660034
Academic	0.4019100069999695	0.9887800216674805	-0.5370799899101257	-0.7477399706840515	1.4104000329971313	-0.7043600082397461	0.4637700021266937	-1.5916999578475952	1.0155999660491943	-1.0108000040054321	-0.7402899861335754	0.021567000076174736	-2.47160005569458	1.1389000415802002	0.8606899976730347	-0.6187700033187866	0.31075000762939453	0.5633599758148193	0.12152999639511108	0.09071700274944305	-0.6399499773979187	0.3153400123119354	-1.298799991607666	-0.7428399920463562	-0.7975900173187256
Spooks	-0.3351300060749054	0.35673999786376953	-0.09794700145721436	-0.1882999986410141	-0.33281001448631287	-0.8821899890899658	-0.3396100103855133	-2.1459999084472656	0.34665000438690186	-0.652459979057312	-0.029551999643445015	0.028165999799966812	-0.32245999574661255	0.15526999533176422	0.5473399758338928	0.012772999703884125	0.29627999663352966	0.15275999903678894	1.2417999505996704	0.5387600064277649	0.3392600119113922	0.13360999524593353	-0.33129000663757324	-0.8146399855613708	0.09545499831438065
Spook	-0.3226799964904785	0.40915998816490173	-0.08719900250434875	0.14166000485420227	-0.3886699974536896	-0.11998999863862991	-0.8049100041389465	-1.3992999792099	0.5351799726486206	-0.6633099913597107	-0.7181299924850464	0.5515300035476685	-0.8705099821090698	-0.42399999499320984	0.13425999879837036	0.6205599904060364	1.214400053024292	0.49768999218940735	0.5103800296783447	0.9493700265884399	0.19631999731063843	0.23959000408649445	-0.06434199959039688	-0.14962999522686005	0.5281400084495544
Intellectuals	0.23904000222682953	0.46751001477241516	-0.7660599946975708	-0.017409000545740128	0.3141700029373169	0.009865899570286274	0.06413199752569199	-2.223900079727173	0.8530300259590149	-0.23950999975204468	-0.07905399799346924	-0.10234999656677246	-0.979669988155365	0.20679999887943268	-0.36579999327659607	0.6834499835968018	-0.4370900094509125	0.03210499882698059	1.544700026512146	0.11422000080347061	0.8568099737167358	0.9472399950027466	-1.767199993133545	-1.2860000133514404	-0.6590399742126465
Intellectual	-0.5259900093078613	-0.09508699923753738	-1.604099988937378	0.794219970703125	1.3279000520706177	0.7664399743080139	0.8413699865341187	-1.3849999904632568	0.7279599905014038	-0.49810001254081726	-0.7204999923706055	0.17225000262260437	-2.2304000854492188	0.8647199869155884	0.32311001420021057	0.7023299932479858	0.13142000138759613	0.60971999168396	0.837369978427887	0.0813940018415451	0.332069993019104	0.19565999507904053	-0.8217399716377258	-0.791100025177002	-1.2351000308990479
Clerks	0.12567000091075897	0.7373499870300293	0.6390600204467773	-1.3062000274658203	0.3687700033187866	-1.607800006866455	-1.0074000358581543	-1.5351999998092651	1.1016000509262085	-0.8457900285720825	-0.3062799870967865	-0.16804000735282898	-1.4115999937057495	-0.2619999945163727	0.0788630023598671	-0.3140699863433838	-0.27456000447273254	0.14380000531673431	0.20194000005722046	0.6828200221061707	0.012311999686062336	-0.3765000104904175	-0.011657999828457832	-0.5045499801635742	-0.26627999544143677
Clerk	-1.1202000379562378	0.6890599727630615	0.1777999997138977	-1.1967999935150146	1.3717000484466553	-1.3622000217437744	-0.715470016002655	-1.1783000230789185	1.2204999923706055	0.18775999546051025	0.6734899878501892	0.34002000093460083	-1.8482999801635742	-0.12396000325679779	1.3243999481201172	-1.0586999654769897	1.0476000308990479	0.298009991645813	0.1472499966621399	-0.6079199910163879	1.1288000345230103	-1.138100028038025	-0.17925000190734863	-0.3074699938297272	-0.8992800116539001
Trappers	-0.25501999258995056	1.8395999670028687	0.23986999690532684	-0.003980500157922506	-0.10699000209569931	-0.3443399965763092	-0.48627999424934387	-1.7122000455856323	0.9087100028991699	-0.760200023651123	-0.2555899918079376	0.7753700017929077	-0.3160099983215332	-0.756630003452301	-0.19651000201702118	0.421889990568161	-0.04311700165271759	-0.2261500060558319	1.1576000452041626	1.2877000570297241	0.28797000646591187	0.7224799990653992	-0.5473999977111816	-0.9088900089263916	1.1330000162124634
Trapper	-0.6707299947738647	0.9320300221443176	0.029402000829577446	-0.32993999123573303	0.9572200179100037	0.07197900116443634	-0.5709400177001953	-1.0	0.6162300109863281	-1.2230000495910645	0.4731700122356415	1.0190999507904053	-1.0092999935150146	-0.8367099761962891	-0.1329900026321411	0.2972699999809265	1.0069999694824219	-0.06683100014925003	0.9458600282669067	0.7351099848747253	-0.11599999666213989	2.2423999309539795	0.3535099923610687	-0.8372200131416321	0.49764999747276306
Peasants	-0.4442000091075897	0.30500999093055725	-0.11416999995708466	0.09051100164651871	-0.5509099960327148	-0.5134199857711792	0.6183099746704102	-1.9916000366210938	-1.0382000207901	0.7198399901390076	-1.4325000047683716	-0.2786700129508972	-1.2747000455856323	-0.11427000164985657	-0.33254000544548035	0.29218000173568726	-0.07564400136470795	-0.8698400259017944	0.8104000091552734	0.03099999949336052	0.5969700217247009	0.45840999484062195	-0.24626000225543976	-0.7086700201034546	0.13841000199317932
Peasant	-1.4318000078201294	-0.6463099718093872	-1.055299997329712	0.3174700140953064	0.3222599923610687	-1.0882999897003174	0.5849999785423279	-1.2997000217437744	-0.24952000379562378	0.2607100009918213	-1.1404999494552612	-0.04582599923014641	-1.6426000595092773	-0.8462200164794922	-0.5686699748039246	0.4575600028038025	0.4004800021648407	-0.6526899933815002	-0.029603000730276108	0.7022899985313416	0.8534899950027466	0.5462599992752075	0.32416000962257385	-0.3877899944782257	-0.5533599853515625
Undertakers	-0.7496899962425232	1.2233999967575073	0.023840999230742455	-0.11089999973773956	-0.6685199737548828	-0.7775700092315674	0.26229000091552734	-2.08270001411438	0.9714000225067139	-1.2102999687194824	0.14337000250816345	0.3487899899482727	0.46880000829696655	1.0245000123977661	0.8374099731445312	1.0728000402450562	-0.20492999255657196	-0.5509499907493591	-0.04273200035095215	0.5869699716567993	-0.3104499876499176	0.8172100186347961	0.7458900213241577	-1.1643999814987183	-0.9297000169754028
Undertaker	-0.09312500059604645	0.2801400125026703	0.2531599998474121	-0.7991399765014648	-1.027400016784668	-0.556659996509552	0.24087999761104584	0.012539999559521675	0.40494999289512634	-1.7676000595092773	-0.03899399936199188	1.3695000410079956	-1.3587000370025635	0.30403000116348267	1.0089000463485718	0.14614999294281006	-0.7224000096321106	0.24807000160217285	0.6139400005340576	0.46911001205444336	-0.8160899877548218	1.7441999912261963	1.0388000011444092	-0.8549799919128418	-0.20430000126361847
Mystics	-0.299560010433197	0.20829999446868896	-0.023600000888109207	-0.9728900194168091	-1.7122999429702759	-0.18196000158786774	-0.30046001076698303	-1.5328999757766724	1.3046000003814697	-1.3250999450683594	0.09131500124931335	0.4677099883556366	-0.6814299821853638	0.4267500042915344	0.9122700095176697	-0.0568000003695488	-0.27052998542785645	0.05198900029063225	1.8740999698638916	0.8454999923706055	-0.213469997048378	0.41492998600006104	-0.3083899915218353	-1.205299973487854	0.5755400061607361
Mystic	-1.4062999486923218	-0.6891499757766724	0.3155499994754791	0.5482500195503235	-0.9222999811172485	0.40610000491142273	0.2837899923324585	-0.7920500040054321	1.024399995803833	-0.9823700189590454	-0.4807800054550171	-0.149399995803833	-1.4538999795913696	0.3254700005054474	-0.06784600019454956	-0.3254300057888031	-0.2978599965572357	0.9535999894142151	0.7181100249290466	1.0080000162124634	-0.6284899711608887	0.21230000257492065	-0.20044000446796417	-0.5903900265693665	0.10496000200510025
Mortician	-1.5706000328063965	0.7862300276756287	0.9179800152778625	0.35677000880241394	0.002078199991956353	-0.45673999190330505	-0.4986400008201599	-1.590499997138977	0.9060199856758118	-1.3463000059127808	-0.11145000159740448	0.03254900127649307	-0.3171499967575073	-0.07396099716424942	-0.5354700088500977	0.45107001066207886	0.4678199887275696	0.6398000121116638	1.0663000345230103	0.8619300127029419	0.4738999903202057	1.2405999898910522	-0.4332999885082245	-1.2985999584197998	-0.259909987449646
Priests	-0.3304100036621094	0.4535999894142151	-0.03966899961233139	0.331930011510849	-0.30550000071525574	-1.6246999502182007	-0.12838999927043915	-2.4138998985290527	-0.27083998918533325	-0.1643799990415573	0.38027000427246094	-0.31773999333381653	-1.3035999536514282	0.1503400057554245	-0.5317299962043762	-0.5160599946975708	0.17107999324798584	-0.060203999280929565	1.1461999416351318	-0.4229399859905243	0.9808899760246277	1.6561000347137451	-1.2555999755859375	-1.6411000490188599	0.34360000491142273
Priest	-1.0269999504089355	0.054593998938798904	0.31602001190185547	0.6032699942588806	-0.11527000367641449	-1.406999945640564	0.42770999670028687	-0.7316399812698364	0.5976999998092651	-0.3443799912929535	0.2015800029039383	0.34567001461982727	-1.979599952697754	0.020100999623537064	0.3537999987602234	-0.23975999653339386	0.6452100276947021	0.9098600149154663	0.7221500277519226	-0.1325799971818924	0.9303799867630005	1.0915000438690186	-0.5211099982261658	-1.1776000261306763	0.6101599931716919
Pornographers	-1.638100028038025	0.22655999660491943	-0.21748000383377075	0.5197700262069702	0.6944000124931335	-1.9247000217437744	0.42653000354766846	-1.569100022315979	1.1181999444961548	-0.7422199845314026	1.0836999416351318	0.7043600082397461	0.22543999552726746	-0.5799499750137329	-0.19429999589920044	0.6460599899291992	0.4066300094127655	0.5021399855613708	1.8356000185012817	0.4299499988555908	0.057075001299381256	-0.06835400313138962	-0.6955400109291077	-1.0994000434875488	-0.35378000140190125
Pornographer	-2.1273000240325928	0.5360100269317627	0.06452900171279907	1.160599946975708	0.4586000144481659	-1.8447999954223633	-0.5579100251197815	-1.2081999778747559	0.8446499705314636	-0.7185199856758118	0.22307999432086945	0.22342999279499054	-0.041721999645233154	0.2581999897956848	0.25832998752593994	0.4993300139904022	0.5797600150108337	1.2872999906539917	1.3940000534057617	-0.5654000043869019	0.6207200288772583	1.0612000226974487	-0.7385500073432922	-0.602840006351471	0.09214600175619125
Philanthropists	-0.94896000623703	0.9051799774169922	-0.7132899761199951	0.046838000416755676	-0.013504999689757824	-0.019872000440955162	-0.7696800231933594	-2.2076001167297363	0.6288899779319763	-1.2610000371932983	0.49055999517440796	0.9573500156402588	-0.14833000302314758	0.27660998702049255	-0.4200800061225891	-0.41962000727653503	0.1929900050163269	-0.6829000115394592	1.3547999858856201	0.34588998556137085	0.28450000286102295	0.9696400165557861	-1.3280999660491943	-1.225000023841858	-0.23503999412059784
Philanthropist	-1.2231999635696411	0.22536000609397888	-0.3937000036239624	-0.20871999859809875	0.8105700016021729	-0.7717800140380859	-0.6851000189781189	-0.845990002155304	0.4573400020599365	-1.301900029182434	0.40988001227378845	0.49344998598098755	-0.622189998626709	-0.8857100009918213	-0.027382999658584595	-0.5502099990844727	0.5242699980735779	0.1924699991941452	1.3961000442504883	-0.03867499902844429	0.6412100195884705	0.9122499823570251	-1.6894999742507935	-0.930869996547699	-0.4943099915981293
Dignitaries	-0.6860799789428711	0.6475499868392944	-0.3406200110912323	-0.2136099934577942	-0.450080007314682	-0.9061400294303894	-0.5141299962997437	-2.468600034713745	0.6920199990272522	-0.686489999294281	0.38321998715400696	-0.326119989156723	-0.5135899782180786	0.9710999727249146	-0.674839973449707	0.4555499851703644	0.11535999923944473	-0.785860002040863	1.0599000453948975	-0.20085999369621277	0.4755200147628784	-0.19064000248908997	-1.4114999771118164	-1.5527000427246094	-0.8113499879837036
Dignitary	-0.5712400078773499	0.0959940031170845	0.5085499882698059	-0.023972000926733017	0.5335800051689148	-1.4266999959945679	-0.3034000098705292	-2.197200059890747	0.34314000606536865	-1.5952999591827393	-0.1737300008535385	-0.03048199974000454	-0.02220500074326992	0.195700004696846	0.8229799866676331	0.29997000098228455	0.8491600155830383	0.40408000349998474	0.7601600289344788	0.9327700138092041	-0.051465000957250595	0.4831700026988983	-1.0254000425338745	-0.7038900256156921	-0.767300009727478
Stenographer	-1.1581000089645386	0.6505200266838074	-0.16438999772071838	-0.3851200044155121	0.2292100042104721	-1.1693999767303467	-0.6384199857711792	-1.844499945640564	1.1541999578475952	-1.2001999616622925	0.7576799988746643	-0.158270001411438	-0.02458300068974495	0.3473699986934662	1.6883000135421753	0.42739999294281006	0.6592100262641907	-0.296889990568161	0.4272100031375885	-0.19672000408172607	-0.4915199875831604	0.8232399821281433	0.1115799993276596	-0.6058200001716614	-0.7711399793624878
Gravedigger	-0.8195199966430664	0.7488200068473816	-0.7613700032234192	0.3335700035095215	-1.0542000532150269	-0.8652099967002869	-0.23619000613689423	-0.6839699745178223	0.9958099722862244	-1.2194000482559204	-0.6492599844932556	0.8718500137329102	-0.7260800004005432	-0.23287999629974365	0.31922999024391174	0.7722799777984619	2.559799909591675	0.5664600133895874	2.2060999870300293	-0.13874000310897827	0.40101999044418335	1.2280000448226929	0.4210500121116638	-0.8912699818611145	0.6120100021362305
Philosophers	0.19246000051498413	0.31703001260757446	0.474839985370636	0.24820999801158905	-0.10079000145196915	-0.3659600019454956	0.428629994392395	-2.015899896621704	0.20396000146865845	-0.9294599890708923	0.4302699863910675	0.16369999945163727	-0.5235999822616577	0.44968000054359436	-1.069200038909912	0.6900100111961365	-0.48137998580932617	0.14560000598430634	1.2575000524520874	0.08874700218439102	-0.3103399872779846	0.951200008392334	-1.396299958229065	-1.0041999816894531	-0.25762999057769775
Philosopher	-0.47468000650405884	-0.2171200066804886	0.12105999886989594	0.8364899754524231	0.12817999720573425	-0.1806900054216385	0.5210099816322327	-1.2259999513626099	0.34178999066352844	-1.1581000089645386	-0.44200998544692993	0.6383399963378906	-1.2342000007629395	-0.045899998396635056	0.5721099972724915	0.18403999507427216	0.5178599953651428	0.6028900146484375	0.732230007648468	0.24330000579357147	1.049299955368042	0.5218499898910522	-1.5091999769210815	-0.895359992980957	-0.02610200084745884
Catchers	-0.4509199857711792	1.1845999956130981	-0.0974780023097992	-1.182800054550171	0.10440000146627426	-0.3983500003814697	0.2535400092601776	-1.6136000156402588	0.11527000367641449	-0.9817000031471252	0.7460700273513794	0.5308600068092346	-0.799239993095398	1.115399956703186	0.5602200031280518	0.0634860023856163	-0.12750999629497528	-0.854610025882721	0.8447200059890747	0.015848999843001366	-1.0170999765396118	0.9332500100135803	0.7761600017547607	-0.6271799802780151	0.25892001390457153
Catcher	-0.8931800127029419	0.2879999876022339	-0.023152999579906464	-0.07552000135183334	0.1509999930858612	-0.3846699893474579	0.09947200119495392	-0.4278799891471863	0.483489990234375	-1.398300051689148	0.9132300019264221	0.9527300000190735	-1.7426999807357788	-0.29197999835014343	0.7946299910545349	-0.10249999910593033	0.18228000402450562	-0.3988499939441681	0.9178299903869629	0.6974700093269348	-0.6635800004005432	1.2819000482559204	0.9465799927711487	-0.4130899906158447	-0.2542699873447418
Coordinator	-0.7062199711799622	1.2706999778747559	-1.1327999830245972	-1.374400019645691	1.1480000019073486	-0.7300300002098083	-0.8555499911308289	-0.5621899962425232	1.2247999906539917	-1.1200000047683716	0.27250000834465027	0.7938600182533264	-2.522900104522705	-0.04730600118637085	2.2657999992370605	-1.1991000175476074	0.20438000559806824	-0.20708000659942627	0.0717419981956482	-0.519540011882782	0.24993999302387238	-0.628250002861023	-0.7921000123023987	-0.6640300154685974	-0.59934002161026
Comedians	0.6276599764823914	0.6938400268554688	0.64096999168396	-0.7077000141143799	0.4104999899864197	-0.008608199656009674	0.889549970626831	-1.3087999820709229	-0.05984500050544739	-1.030900001525879	-0.6370099782943726	0.5540900230407715	-1.44159996509552	-0.6400600075721741	-0.024143999442458153	0.9265699982643127	0.10070999711751938	-1.0080000162124634	1.0286999940872192	0.22853000462055206	0.4931600093841553	0.7190999984741211	-1.8257999420166016	-1.3270000219345093	0.34022000432014465
Comedian	-0.29541000723838806	0.4584200084209442	0.5740299820899963	-0.3559100031852722	0.5646600127220154	-1.0845999717712402	0.9508799910545349	0.12462999671697617	-0.02701300010085106	-1.4048999547958374	-0.4255099892616272	1.2009999752044678	-1.8360999822616577	-0.4867999851703644	0.6094099879264832	-0.013934999704360962	0.858519971370697	-0.27233999967575073	0.22251999378204346	0.22551000118255615	0.7606899738311768	1.061400055885315	-1.3291000127792358	-1.2777999639511108	-0.007921099662780762
Boys	0.03884800150990486	0.2844899892807007	0.21689000725746155	-0.762719988822937	-0.4493600130081177	0.34586000442504883	1.2618000507354736	-0.02430799975991249	-0.9074900150299072	-0.13210999965667725	-0.42138999700546265	0.03311099857091904	-4.264400005340576	-0.18411000072956085	-0.3946700096130371	0.636389970779419	-0.15380999445915222	-1.2854000329971313	-0.36434000730514526	0.8100900053977966	-0.23100000619888306	0.41363999247550964	-0.04204399883747101	-0.7750300168991089	0.05215299874544144
Boy	-0.3939499855041504	0.18228000402450562	0.5795900225639343	0.03558399900794029	0.07977599650621414	0.028341000899672508	1.1155999898910522	0.9878699779510498	-0.21268999576568604	0.017782000824809074	-0.5116900205612183	0.18685999512672424	-4.15500020980835	-0.6747699975967407	-0.1224299967288971	0.06924200057983398	0.4418199956417084	-0.9206699728965759	-0.4668999910354614	0.4270400106906891	0.5523099899291992	1.0786999464035034	0.09691599756479263	-0.08221500366926193	0.2173900008201599
Colonists	-0.008482799865305424	0.036621998995542526	0.9278200268745422	-0.8137500286102295	-1.0618000030517578	-1.2120000123977661	0.26116999983787537	-1.9808000326156616	0.45559000968933105	-0.9881200194358826	1.0634000301361084	0.09077700227499008	-0.37577998638153076	0.825689971446991	0.6279600262641907	0.5761600136756897	0.4155699908733368	0.08570399880409241	1.8630000352859497	0.17276999354362488	-0.29572001099586487	1.0744999647140503	-1.4108999967575073	-1.1612999439239502	-0.3108600080013275
Colonist	-0.37615999579429626	-0.8631700277328491	1.1093000173568726	-0.7679600119590759	0.8832200169563293	-1.7746000289916992	-0.852840006351471	-1.1957000494003296	-0.11548999696969986	-1.377500057220459	-0.6087300181388855	-0.186939999461174	0.1029599979519844	0.7605999708175659	0.6858100295066833	-0.3792499899864197	-0.2969299852848053	0.7548199892044067	2.073899984359741	-0.5716099739074707	0.5942599773406982	0.13289999961853027	-0.03072899952530861	-1.1512000560760498	0.08185499906539917
Journalists	1.2984000444412231	0.8317000269889832	-0.3459399938583374	-0.9303299784660339	0.4983200132846832	-1.0336999893188477	0.05185899883508682	-1.5860999822616577	0.481689989566803	-0.009020299650728703	0.04591299965977669	0.18908999860286713	-2.2651000022888184	0.17050999402999878	-0.18029999732971191	0.04792200028896332	-0.07416299730539322	-0.49788999557495117	0.7569000124931335	-1.0461000204086304	0.7999899983406067	-0.30410999059677124	-1.5023000240325928	-2.497999906539917	-0.22454999387264252
Journalist	0.44391998648643494	0.3347899913787842	-0.11911000311374664	-0.7480499744415283	0.6594399809837341	-1.5527000427246094	-0.24437999725341797	-0.44378000497817993	0.3380900025367737	-0.670490026473999	0.16895000636577606	0.7580100297927856	-2.4058001041412354	0.06699299812316895	0.26370999217033386	0.18884000182151794	0.7964400053024292	0.6497300267219543	0.06811200082302094	-0.23327000439167023	0.6850799918174744	0.22520999610424042	-1.662600040435791	-1.9961999654769897	-0.1399099975824356
Soldiers	-0.32242000102996826	0.6973400115966797	-0.40606001019477844	0.10785000026226044	-0.5106199979782104	-1.0479999780654907	0.49957001209259033	-1.0282000303268433	-0.15209999680519104	0.37391000986099243	0.6960700154304504	-0.15622000396251678	-2.4149999618530273	1.2222000360488892	-0.9238100051879883	-0.006784900091588497	0.022331999614834785	-0.23939000070095062	0.7339699864387512	-0.39028000831604004	-0.08752399682998657	0.917639970779419	-0.5557900071144104	-2.050800085067749	0.9143900275230408
Soldier	-0.8793100118637085	0.08269000053405762	-0.02858700044453144	0.25988999009132385	-0.06908199936151505	-1.1303999423980713	0.8027999997138977	-0.21190999448299408	0.35537999868392944	-0.1261100023984909	0.41569000482559204	0.5478000044822693	-2.3626999855041504	0.6916000247001648	-0.28494998812675476	-0.036334000527858734	0.34665000438690186	0.4729500114917755	0.5567399859428406	-0.10930000245571136	0.26743999123573303	1.0815000534057617	-0.03803599998354912	-1.8152999877929688	0.7829599976539612
Hecklers	-0.40244001150131226	0.5904399752616882	0.25751999020576477	0.12450999766588211	-0.34703999757766724	-1.0377999544143677	-0.4858900010585785	-2.032399892807007	0.1642799973487854	-0.8329799771308899	-0.1557600051164627	0.39660999178886414	0.19551999866962433	-0.19506999850273132	0.786300003528595	0.24421000480651855	-0.11749999970197678	-0.5196200013160706	0.8272299766540527	-0.6361799836158752	0.0383169986307621	0.6452500224113464	-0.5124199986457825	-1.7366000413894653	-0.6038399934768677
Heckler	-1.260599970817566	0.14844000339508057	0.3389599919319153	0.1521099954843521	0.3426400125026703	-1.5154999494552612	-0.8487600088119507	-1.355299949645996	0.7366999983787537	-1.06659996509552	0.24206000566482544	0.7791299819946289	-0.5171399712562561	-0.26337000727653503	0.7574899792671204	-0.02218100056052208	-0.06711599975824356	0.043793000280857086	0.6717399954795837	-0.48642000555992126	0.8692600131034851	0.62704998254776	0.07287599891424179	-1.6365000009536743	-0.8027200102806091
Disgraced	-0.5887899994850159	0.3364799916744232	-0.23229999840259552	-0.005801199935376644	-0.5092700123786926	-1.2058000564575195	-0.6643700003623962	-1.2890000343322754	-0.1666399985551834	-0.7666100263595581	-0.21376000344753265	0.7710599899291992	-1.1253000497817993	0.07801300287246704	-0.0003043200122192502	-0.0934009999036789	1.2137999534606934	0.7331900000572205	1.267199993133545	-0.9577500224113464	0.2448599934577942	0.8195199966430664	-0.5290899872779846	-1.7942999601364136	-0.6831499934196472
Listless	-0.9413999915122986	-0.5801200270652771	-0.06815899908542633	-0.3619999885559082	-0.5034800171852112	0.42261001467704773	-0.565339982509613	-2.051500082015991	0.3802900016307831	-0.884850025177002	-0.63059002161026	-0.0017683999612927437	-0.08152800053358078	0.2058199942111969	0.9007599949836731	-0.0314750000834465	0.46597999334335327	0.20461000502109528	1.1907000541687012	-0.4368099868297577	-0.2409300059080124	1.0286999940872192	0.11411000043153763	-0.6154000163078308	-0.9488000273704529
Daft	0.33090999722480774	0.0852769985795021	0.22012999653816223	0.11011999845504761	0.05920099839568138	0.035151999443769455	0.7783799767494202	0.3177900016307831	-0.49796000123023987	-1.5414999723434448	0.1457500010728836	0.4722000062465668	-1.898800015449524	-0.9310899972915649	0.41084998846054077	0.9740999937057495	-0.19453999400138855	-0.0550759993493557	0.20002999901771545	0.7837299704551697	-0.35657998919487	0.29666998982429504	0.25863000750541687	-1.3131999969482422	0.03436800092458725
Gilded	-0.8406599760055542	-1.1073999404907227	0.5513499975204468	0.1018500030040741	0.3725399971008301	-0.3007600009441376	-0.39730000495910645	-1.4306999444961548	-0.004267800133675337	-1.4299999475479126	1.030500054359436	-0.5157099962234497	-0.1876399964094162	-0.17103999853134155	-0.47960999608039856	-0.23385000228881836	0.8819100260734558	0.6729400157928467	0.9937499761581421	0.23458999395370483	-1.1994999647140503	1.0709999799728394	0.9060999751091003	-0.889680027961731	-0.4463900029659271
Self-Appointed	-0.4893600046634674	1.3349000215530396	-0.37536999583244324	1.208400011062622	0.9256399869918823	0.09407299757003784	0.14656999707221985	-2.4554998874664307	0.44137999415397644	-1.1331000328063965	0.7241600155830383	-1.1085000038146973	0.18713000416755676	-0.34718000888824463	1.1145999431610107	-0.22867999970912933	1.2038999795913696	0.5011900067329407	2.2393999099731445	0.6820099949836731	0.2635500133037567	1.0096999406814575	-0.8805500268936157	-0.21264000236988068	-0.586430013179779
Masturbators	-0.8133400082588196	1.0210000276565552	-1.1176999807357788	-0.1866299957036972	0.7869099974632263	0.4906100034713745	-0.1387699991464615	-2.0504000186920166	0.362419992685318	-0.26368001103401184	0.44617000222206116	-0.11375000327825546	0.6227800250053406	-0.03308099880814552	0.3420099914073944	1.270400047302246	0.4292899966239929	-0.537339985370636	2.4842000007629395	-0.21796000003814697	0.1995300054550171	1.00600004196167	-0.1363700032234192	-0.5158699750900269	0.08251599967479706
Masturbator	-1.770300030708313	-0.06276699900627136	-0.4268600046634674	-0.04465800151228905	1.058899998664856	-0.8659999966621399	0.006607499904930592	-1.711300015449524	0.24390999972820282	0.09108500182628632	0.8279899954795837	-0.12389999628067017	0.3010199964046478	-0.021889999508857727	0.7292600274085999	1.3907999992370605	1.1368999481201172	0.30491000413894653	1.1899000406265259	0.32328999042510986	0.10352999716997147	0.7026900053024292	-0.15579000115394592	-0.6986500024795532	0.03144900128245354
Cuckold	-1.7841999530792236	-0.1710900068283081	-1.108299970626831	-0.36785000562667847	1.3882999420166016	-1.514299988746643	0.5822799801826477	-0.6932799816131592	0.40035998821258545	-1.156599998474121	-0.845009982585907	0.4928300082683563	-0.1130400002002716	-0.7070599794387817	-0.7139899730682373	0.18743999302387238	0.26282998919487	-0.9294499754905701	0.3045699894428253	0.31272000074386597	1.032099962234497	-0.5449900031089783	-0.31773999333381653	-2.3352999687194824	-0.5872799754142761
Concubines	-0.5157300233840942	0.383870005607605	-0.05419500172138214	0.4661700129508972	-0.3174000084400177	-0.9388200044631958	-0.7436100244522095	-2.0495998859405518	-0.2750900089740753	-0.9718599915504456	0.31185001134872437	0.48050999641418457	0.6581100225448608	0.23944999277591705	-0.420740008354187	0.5901299715042114	0.43926000595092773	-0.5323500037193298	0.7789400219917297	0.36524999141693115	-0.1986600011587143	0.9900299906730652	-0.5084099769592285	-0.7425500154495239	-0.7942100167274475
Concubine	-1.0996999740600586	-0.06099599972367287	-0.24480000138282776	0.26061001420021057	0.12601999938488007	-0.8856899738311768	-0.4192500114440918	-1.6344000101089478	0.6667900085449219	-1.1476999521255493	-0.36862000823020935	0.22192999720573425	0.1074799969792366	0.40272000432014465	0.03813499957323074	0.5641499757766724	0.7115200161933899	0.7688900232315063	0.4440999925136566	0.9405900239944458	0.4611999988555908	0.5329099893569946	-0.3922699987888336	-0.42214998602867126	-0.6998400092124939
Rapists	0.8481799960136414	0.741129994392395	-0.2055100053548813	0.4981899857521057	-0.33550000190734863	-0.8648499846458435	-0.05719500035047531	-1.645900011062622	0.06953399628400803	1.0849000215530396	0.7168999910354614	-0.17782999575138092	-1.348099946975708	0.16615000367164612	-0.0019193999469280243	0.7940800189971924	0.06867200136184692	-0.8151800036430359	1.4470000267028809	-1.0764000415802002	0.4308899939060211	1.3423999547958374	-0.7345399856567383	-2.1972999572753906	-0.03530000150203705
Rapist	-0.19765999913215637	-0.0633770003914833	-0.16867999732494354	0.1009100005030632	0.2289399951696396	-1.2472000122070312	0.3085800111293793	-0.48342999815940857	-0.2729400098323822	0.6234599947929382	0.1658100038766861	0.3993000090122223	-1.6735999584197998	-0.41729000210762024	0.6738399863243103	0.6664000153541565	1.0154000520706177	0.04444099962711334	0.8441900014877319	-0.8301600217819214	1.190000057220459	1.5473999977111816	0.17241999506950378	-1.9402999877929688	-0.2114199995994568
Harlots	-0.8818699717521667	0.5340399742126465	0.678659975528717	0.06786099821329117	-0.13053999841213226	-0.13905000686645508	-0.27742999792099	-2.1930999755859375	0.6481500267982483	-0.31077998876571655	-0.25613999366760254	0.16124999523162842	-0.11214999854564667	0.22989000380039215	0.4842599928379059	0.2156900018453598	0.14284999668598175	0.24276000261306763	1.924299955368042	1.1201000213623047	0.23179000616073608	1.4634000062942505	-0.4608300030231476	-0.6769099831581116	0.30441999435424805
Harlot	-1.6766999959945679	-0.34303998947143555	0.25084999203681946	0.6956599950790405	-0.16926999390125275	-0.34586000442504883	0.487060010433197	-1.1490999460220337	0.7465100288391113	-1.204699993133545	-0.40400999784469604	0.9487400054931641	-0.03649500012397766	-0.41611000895500183	-0.06786999851465225	0.3328700065612793	-0.18499000370502472	0.28971999883651733	1.5396000146865845	0.5813599824905396	0.10012000054121017	1.4671000242233276	-0.20550000667572021	-0.7505699992179871	0.32368001341819763
Witches	-0.004342199768871069	0.0721300020813942	0.4664100110530853	0.12337999790906906	-1.0745999813079834	-0.43623000383377075	0.9491299986839294	-1.7811000347137451	-0.07218299806118011	-0.7401099801063538	0.18289999663829803	0.38381001353263855	-1.3769999742507935	0.32218000292778015	-0.7659400105476379	-0.11920999735593796	0.4862099885940552	-0.05412700027227402	1.2062000036239624	0.7418199777603149	-0.08773300051689148	0.4776799976825714	-0.2248699963092804	-1.183899998664856	0.9609799981117249
Tarts	-0.7984200119972229	-0.1448799967765808	0.6320599913597107	0.5664100050926208	-0.35662999749183655	0.47477999329566956	0.7026100158691406	-1.9783999919891357	-0.20264999568462372	-0.09962499886751175	0.9862499833106995	-0.04962100088596344	-1.2131999731063843	-1.3407000303268433	-0.4552899897098541	0.5420600175857544	0.8520600199699402	-0.910099983215332	1.0938999652862549	0.986739993095398	-1.1435999870300293	0.7747799754142761	-0.2758699953556061	0.9544900059700012	1.2553000450134277
Tart	-0.8753200173377991	-0.09659100323915482	0.6893900036811829	0.6813799738883972	-0.14733999967575073	0.8676699995994568	0.13541999459266663	-1.1057000160217285	0.48600998520851135	0.07427799701690674	0.7000200152397156	-0.2016499936580658	-1.388800024986267	-1.0389000177383423	-0.05827999860048294	0.10948999971151352	1.4675999879837036	-0.760420024394989	0.13099999725818634	1.2654000520706177	-0.6523399949073792	0.7324699759483337	-0.7947700023651123	1.038100004196167	0.5702300071716309
Jezebel	-0.6256099939346313	-0.42350998520851135	-0.4817799925804138	0.5410100221633911	-0.24528999626636505	-1.0591000318527222	-0.3227800130844116	-1.493399977684021	0.5373799800872803	-0.7196900248527527	-0.2789100110530853	0.5685099959373474	-0.6403399705886841	-0.6432099938392639	-0.18129999935626984	-0.5005599856376648	0.16487999260425568	0.6212800145149231	1.0228999853134155	1.1913000345230103	0.4589900076389313	0.011908000335097313	-0.6755300164222717	-0.4359799921512604	-0.3752500116825104
Harpies	-0.5514199733734131	0.04252399876713753	0.3184700012207031	-0.06120999902486801	-0.5054799914360046	-0.7189300060272217	-0.4120199978351593	-2.527100086212158	0.13902999460697174	-0.6923800110816956	-0.075934998691082	-0.37738001346588135	0.6747199892997742	-0.0012739000376313925	1.2795000076293945	0.4494200050830841	0.840719997882843	-0.36430999636650085	1.1894999742507935	0.3660700023174286	-0.0435589998960495	0.5743700265884399	-0.11627999693155289	-0.6559399962425232	-0.7928000092506409
Harpy	-1.460800051689148	-0.0020641000010073185	0.35596001148223877	0.09253399819135666	-0.9456499814987183	0.3153400123119354	-0.21017000079154968	-0.9053099751472473	1.1274000406265259	-0.7038000226020813	-0.1952199935913086	0.22326000034809113	0.7796599864959717	0.10362999886274338	0.13526000082492828	-0.16243000328540802	1.1461999416351318	-0.005002699792385101	1.15339994430542	1.059499979019165	-0.37775999307632446	1.719099998474121	-0.9363099932670593	-0.6456500291824341	-0.059255000203847885
Molestor	-2.4614999294281006	0.347790002822876	-0.5037699937820435	0.638700008392334	0.6797400116920471	-1.7802000045776367	0.15594999492168427	-1.7481000423431396	0.15253999829292297	-0.9160699844360352	-0.2508000135421753	0.29300999641418457	0.13099999725818634	0.5390999913215637	0.8088099956512451	1.1586999893188477	0.793969988822937	1.2274999618530273	1.9381999969482422	0.05977800115942955	0.8265600204467773	1.327299952507019	-0.8584700226783752	-0.08215899765491486	0.6068699955940247
Unprincipled	-0.4375300109386444	-0.5510200262069702	-0.5518100261688232	-0.4007599949836731	-0.08133099973201752	0.21536999940872192	-1.0293999910354614	-2.064300060272217	0.6498100161552429	-0.5308899879455566	0.35635998845100403	-0.029918000102043152	-0.1965000033378601	-0.32420000433921814	0.2601799964904785	0.7719399929046631	1.4603999853134155	0.06965699791908264	1.745300054550171	-0.16121000051498413	-0.122359998524189	1.176800012588501	-1.3523000478744507	-1.6535999774932861	-0.888949990272522
Political	1.1725000143051147	0.30449000000953674	-1.2491999864578247	-0.09935799986124039	1.132200002670288	-0.967270016670227	0.9660699963569641	-1.274999976158142	1.0916999578475952	-0.4399000108242035	-0.33177000284194946	0.07018899917602539	-3.331199884414673	1.0368000268936157	0.40081000328063965	-0.007904799655079842	-0.6055099964141846	0.7186700105667114	0.41830000281333923	-0.07800900191068649	0.0709730014204979	0.7166600227355957	-0.6400499939918518	-1.8931000232696533	-0.948199987411499
Mistaken	-0.5841100215911865	0.002514899941161275	-0.3957099914550781	0.1339299976825714	0.12791000306606293	0.042447999119758606	0.7184200286865234	-1.1660000085830688	-0.720009982585907	0.14353999495506287	-0.6794899702072144	0.9789800047874451	-1.9768999814987183	-0.16553999483585358	-0.19526000320911407	0.885670006275177	0.4583199918270111	0.7623599767684937	0.783810019493103	-1.0877000093460083	1.3345999717712402	0.6398199796676636	-0.5979700088500977	-0.3966600000858307	-1.2453999519348145
Closet	-1.236899971961975	-0.31758999824523926	1.1683000326156616	-0.015657000243663788	0.6060299873352051	0.3679099977016449	0.075143001973629	-0.3463900089263916	-0.21636000275611877	0.13016000390052795	0.38982000946998596	-0.8991000056266785	-2.9881999492645264	-0.7158899903297424	-0.0008430900052189827	1.1872999668121338	0.8764500021934509	-0.3265799880027771	0.7648900151252747	-0.2459300011396408	-0.12748999893665314	-0.5973799824714661	0.6168400049209595	-0.33274000883102417	-0.07944600284099579
Diseased	-0.5035399794578552	-0.7702999711036682	-0.21448999643325806	1.215399980545044	0.08438300341367722	0.22062000632286072	0.003014999907463789	-2.156599998474121	-0.36059001088142395	0.23642000555992126	-0.5571399927139282	0.1627800017595291	-0.6440200209617615	-0.9680299758911133	-0.23186999559402466	-0.0846169963479042	1.3833999633789062	0.36796000599861145	1.5429999828338623	-0.22875000536441803	0.31867000460624695	1.0032999515533447	-0.05144499987363815	-0.9312899708747864	-0.1339299976825714
Jilted	-1.9878000020980835	0.39875999093055725	-0.09041500091552734	-0.07748199999332428	0.45829999446868896	-0.5529500246047974	-0.03280799835920334	-0.4362899959087372	-0.07716400176286697	-1.0511000156402588	-0.08291400223970413	0.482589989900589	-0.7861599922180176	0.22658999264240265	-0.32444998621940613	0.8501600027084351	0.8869699835777283	1.246500015258789	1.7944999933242798	0.4529699981212616	-0.14392000436782837	1.4027999639511108	-0.1645199954509735	-1.3710999488830566	-1.4140000343322754
